{"learner":{"attributes":{"scikit_learn":"{\"_estimator_type\": \"regressor\"}"},"feature_names":["underlying_price","strike","TTM","mid_price","moneyness","log_moneyness","intrinsic","time_value","is_call","volume","openInterest"],"feature_types":["float","float","float","float","float","float","float","float","int","float","float"],"gradient_booster":{"model":{"cats":{"enc":[],"feature_segments":[],"sorted_idx":[]},"gbtree_model_param":{"num_parallel_tree":"1","num_trees":"300"},"iteration_indptr":[0,1,2,3,4,5,6,7,8,9,10,11,12,13,14,15,16,17,18,19,20,21,22,23,24,25,26,27,28,29,30,31,32,33,34,35,36,37,38,39,40,41,42,43,44,45,46,47,48,49,50,51,52,53,54,55,56,57,58,59,60,61,62,63,64,65,66,67,68,69,70,71,72,73,74,75,76,77,78,79,80,81,82,83,84,85,86,87,88,89,90,91,92,93,94,95,96,97,98,99,100,101,102,103,104,105,106,107,108,109,110,111,112,113,114,115,116,117,118,119,120,121,122,123,124,125,126,127,128,129,130,131,132,133,134,135,136,137,138,139,140,141,142,143,144,145,146,147,148,149,150,151,152,153,154,155,156,157,158,159,160,161,162,163,164,165,166,167,168,169,170,171,172,173,174,175,176,177,178,179,180,181,182,183,184,185,186,187,188,189,190,191,192,193,194,195,196,197,198,199,200,201,202,203,204,205,206,207,208,209,210,211,212,213,214,215,216,217,218,219,220,221,222,223,224,225,226,227,228,229,230,231,232,233,234,235,236,237,238,239,240,241,242,243,244,245,246,247,248,249,250,251,252,253,254,255,256,257,258,259,260,261,262,263,264,265,266,267,268,269,270,271,272,273,274,275,276,277,278,279,280,281,282,283,284,285,286,287,288,289,290,291,292,293,294,295,296,297,298,299,300],"tree_info":[0,0,0,0,0,0,0,0,0,0,0,0,0,0,0,0,0,0,0,0,0,0,0,0,0,0,0,0,0,0,0,0,0,0,0,0,0,0,0,0,0,0,0,0,0,0,0,0,0,0,0,0,0,0,0,0,0,0,0,0,0,0,0,0,0,0,0,0,0,0,0,0,0,0,0,0,0,0,0,0,0,0,0,0,0,0,0,0,0,0,0,0,0,0,0,0,0,0,0,0,0,0,0,0,0,0,0,0,0,0,0,0,0,0,0,0,0,0,0,0,0,0,0,0,0,0,0,0,0,0,0,0,0,0,0,0,0,0,0,0,0,0,0,0,0,0,0,0,0,0,0,0,0,0,0,0,0,0,0,0,0,0,0,0,0,0,0,0,0,0,0,0,0,0,0,0,0,0,0,0,0,0,0,0,0,0,0,0,0,0,0,0,0,0,0,0,0,0,0,0,0,0,0,0,0,0,0,0,0,0,0,0,0,0,0,0,0,0,0,0,0,0,0,0,0,0,0,0,0,0,0,0,0,0,0,0,0,0,0,0,0,0,0,0,0,0,0,0,0,0,0,0,0,0,0,0,0,0,0,0,0,0,0,0,0,0,0,0,0,0,0,0,0,0,0,0,0,0,0,0,0,0,0,0,0,0,0,0,0,0,0,0,0,0,0,0,0,0,0,0],"trees":[{"base_weights":[-9.882537E-4,-1.28384E-1,3.8935697E-1,2.0902927E0,-1.4054103E-1,8.5033983E-1,1.0726065E-1,1.612685E-1,-2.7311532E-2,4.9662352E-1,-1.847401E-1,1.3721997E-1,7.7005213E-1,1.2160136E0,5.0456762E-2,2.882888E-1,1.3483421E0,-2.9199291E-2,-1.6017595E-1,1.6364776E0,6.3227606E-1,7.1295375E-1,1.9871093E0,-2.9010093E-2,9.774392E-2,1.0782979E0,1.8182725E-1,9.776248E-1,1.7662361E0,-1.9584726E-1,-3.5634104E-2,-2.7799238E-2,1.9853435E0,-2.8581833E-2,6.928637E-1,-2.508202E-2,8.786815E-1,1.4152858E0,2.6620636E0,2.5402302E-2,4.4262147E-1,7.766266E-2,3.5903465E-2,4.530588E-3,2.9209165E-2,3.5869777E-2,6.0697045E-2,6.646997E-2,9.663531E-2,-6.6679353E-3,-1.1278621E-2,1.3278881E-2,-4.837763E-3,8.274037E-2,1.3189428E-1,2.655601E-2,5.083823E-2,5.8865465E-2,3.169972E-2,7.837983E-2,3.2241695E-2,1.3810809E-1,3.4019705E-2,-3.9429306E-3,7.120798E-3,1.9364903E-2,8.499842E-2],"categories":[],"categories_nodes":[],"categories_segments":[],"categories_sizes":[],"default_left":[0,0,0,0,0,0,0,0,0,0,0,0,0,0,0,0,0,0,0,0,0,0,0,0,0,0,0,0,0,0,0,0,0,0,0,0,0,0,0,0,0,0,0,0,0,0,0,0,0,0,0,0,0,0,0,0,0,0,0,0,0,0,0,0,0,0,0],"id":0,"left_children":[1,3,5,7,9,11,13,-1,-1,15,17,-1,19,21,23,25,27,-1,29,31,33,35,37,-1,39,41,43,45,47,49,51,-1,53,-1,55,-1,57,59,61,63,65,-1,-1,-1,-1,-1,-1,-1,-1,-1,-1,-1,-1,-1,-1,-1,-1,-1,-1,-1,-1,-1,-1,-1,-1,-1,-1],"loss_changes":[5.6809656E2,2.3260838E2,3.654556E2,1.4241672E2,2.4135625E2,1.6014502E2,1.09841324E2,0E0,0E0,9.826935E1,7.848123E1,0E0,1.21322266E2,3.155542E1,4.959114E1,3.7483242E1,1.5159622E1,0E0,3.353E1,1.0818637E2,6.502295E1,1.1109257E1,8.968918E0,0E0,3.8559914E1,7.9525604E0,1.4480703E1,2.8189087E0,1.0666809E0,1.0869629E1,3.0991999E1,0E0,2.1733124E1,0E0,4.3676147E1,0E0,2.6879005E0,1.3361244E0,8.977051E-1,1.5614967E1,1.798388E1,0E0,0E0,0E0,0E0,0E0,0E0,0E0,0E0,0E0,0E0,0E0,0E0,0E0,0E0,0E0,0E0,0E0,0E0,0E0,0E0,0E0,0E0,0E0,0E0,0E0,0E0],"parents":[2147483647,0,0,1,1,2,2,3,3,4,4,5,5,6,6,9,9,10,10,12,12,13,13,14,14,15,15,16,16,18,18,19,19,20,20,21,21,22,22,24,24,25,25,26,26,27,27,28,28,29,29,30,30,32,32,34,34,36,36,37,37,38,38,39,39,40,40],"right_children":[2,4,6,8,10,12,14,-1,-1,16,18,-1,20,22,24,26,28,-1,30,32,34,36,38,-1,40,42,44,46,48,50,52,-1,54,-1,56,-1,58,60,62,64,66,-1,-1,-1,-1,-1,-1,-1,-1,-1,-1,-1,-1,-1,-1,-1,-1,-1,-1,-1,-1,-1,-1,-1,-1,-1,-1],"split_conditions":[1.7538683E0,1.0678421E-1,3.0958903E-1,1.9145E2,2.1917809E-2,2.1917809E-2,1.1E1,1.612685E-1,-2.7311532E-2,1.2734857E0,-1.251001E1,1.3721997E-1,2.85E1,1.8E-1,-7.050293E-1,8.1156E-1,6.5E-2,-2.9199291E-2,1.2941165E0,-7.050293E-1,-7.050293E-1,-1.251001E1,5.428E1,-2.9010093E-2,4.718372E0,3.5E2,1.148898E0,1.4378065E0,1.392875E0,2.1369863E-1,7.945205E-2,-2.7799238E-2,1.8075E2,-2.8581833E-2,1.28E2,-2.508202E-2,1.1342466E0,1.630137E0,2.131507E0,1.7925E1,1.555E1,7.766266E-2,3.5903465E-2,4.530588E-3,2.9209165E-2,3.5869777E-2,6.0697045E-2,6.646997E-2,9.663531E-2,-6.6679353E-3,-1.1278621E-2,1.3278881E-2,-4.837763E-3,8.274037E-2,1.3189428E-1,2.655601E-2,5.083823E-2,5.8865465E-2,3.169972E-2,7.837983E-2,3.2241695E-2,1.3810809E-1,3.4019705E-2,-3.9429306E-3,7.120798E-3,1.9364903E-2,8.499842E-2],"split_indices":[4,4,2,3,2,2,1,0,0,4,7,0,1,7,7,4,3,0,4,7,7,7,4,0,4,10,4,4,4,2,2,0,3,0,3,0,2,2,2,3,7,0,0,0,0,0,0,0,0,0,0,0,0,0,0,0,0,0,0,0,0,0,0,0,0,0,0],"split_type":[0,0,0,0,0,0,0,0,0,0,0,0,0,0,0,0,0,0,0,0,0,0,0,0,0,0,0,0,0,0,0,0,0,0,0,0,0,0,0,0,0,0,0,0,0,0,0,0,0,0,0,0,0,0,0,0,0,0,0,0,0,0,0,0,0,0,0],"sum_hessian":[1.1422E4,8.612E3,2.81E3,4.6E1,8.566E3,1.066E3,1.744E3,3.2E1,1.4E1,5.55E2,8.011E3,4.2E1,1.024E3,8.4E1,1.66E3,4.47E2,1.08E2,4.63E2,7.548E3,1.39E2,8.85E2,5.2E1,3.2E1,1.15E2,1.545E3,5.2E1,3.95E2,5.9E1,4.9E1,5.867E3,1.681E3,1.9E1,1.2E2,4.2E1,8.43E2,6E0,4.6E1,1.9E1,1.3E1,1.278E3,2.67E2,2.1E1,3.1E1,3.23E2,7.2E1,3E1,2.9E1,1.6E1,3.3E1,1.893E3,3.974E3,2.83E2,1.398E3,8.2E1,3.8E1,5.64E2,2.79E2,1.9E1,2.7E1,1.5E1,4E0,1.2E1,1E0,6.76E2,6.02E2,2.57E2,1E1],"tree_param":{"num_deleted":"0","num_feature":"11","num_nodes":"67","size_leaf_vector":"1"}},{"base_weights":[-1.28034035E-5,-7.384898E-2,6.331771E-1,6.287499E-1,-1.1845887E-1,1.0269263E0,2.8541186E-1,3.2873014E-1,1.9976702E0,1.8439907E0,-1.2763691E-1,1.6703644E0,8.309219E-1,1.817825E-1,9.9450004E-1,1.0543423E0,2.4827005E-1,1.5256962E0,1.238239E-1,1.522477E-1,-2.6153231E-2,-2.052297E-1,5.811578E-2,5.7306653E-1,1.8085071E0,1.5970429E0,7.551155E-1,1.27947E-1,8.2232887E-1,7.255727E-1,1.6411178E0,7.51667E-2,7.306591E-1,1.0804998E-1,6.9779146E-1,5.6690615E-2,9.668219E-2,-5.4493475E-1,-1.8864363E-1,3.7384906E-1,-4.690846E-2,2.6377693E-1,9.126979E-2,1.4792124E0,2.5819297E0,1.7428434E0,4.1621782E-2,2.5256243E-2,7.980958E-1,2.243844E-1,4.028977E-2,1.2159464E0,5.6803566E-1,6.2622035E-1,1.0625178E0,1.8503897E0,-1.8541234E-2,4.705229E-2,2.7412733E-2,1.8252844E-2,1.8053247E-3,2.3837663E-2,4.7710493E-2,5.9712954E-2,-2.7713848E-2,-4.9389857E-3,-1.0663228E-2,3.9644223E-2,1.497222E-2,-6.1388467E-3,1.5041054E-3,-2.1954248E-2,5.146826E-2,9.6855454E-2,6.464373E-2,1.3339324E-1,-4.1998117E-3,7.31513E-2,1.0920787E-1,2.8268391E-2,-2.5848001E-2,3.1911198E-2,5.4089386E-2,1.2435694E-2,-1.5789019E-2,8.2863E-3,-8.471077E-4,2.6658494E-2,9.160384E-2,-8.25509E-3,3.6729585E-2,3.498365E-2,4.8022117E-3,5.6676056E-2,7.037042E-3,4.9564466E-2,1.06397204E-1],"categories":[],"categories_nodes":[],"categories_segments":[],"categories_sizes":[],"default_left":[0,0,0,0,0,0,0,0,0,0,0,0,0,0,0,0,0,0,0,0,0,0,0,0,0,0,0,0,0,0,0,0,0,0,0,0,0,0,0,0,0,0,0,0,0,0,0,0,0,0,0,0,0,0,0,0,0,0,0,0,0,0,0,0,0,0,0,0,0,0,0,0,0,0,0,0,0,0,0,0,0,0,0,0,0,0,0,0,0,0,0,0,0,0,0,0,0],"id":1,"left_children":[1,3,5,7,9,11,13,15,17,19,21,23,25,27,29,31,33,35,-1,-1,-1,37,39,41,43,45,47,49,51,53,55,-1,57,59,61,-1,-1,63,65,67,69,71,-1,73,75,77,-1,79,81,83,85,87,89,91,93,95,-1,-1,-1,-1,-1,-1,-1,-1,-1,-1,-1,-1,-1,-1,-1,-1,-1,-1,-1,-1,-1,-1,-1,-1,-1,-1,-1,-1,-1,-1,-1,-1,-1,-1,-1,-1,-1,-1,-1,-1,-1],"loss_changes":[5.3587506E2,3.2180896E2,1.636148E2,2.5110435E2,1.740998E2,6.9363525E1,4.662748E1,2.9163174E1,2.1079956E1,1.2951627E2,1.385071E2,1.8669464E1,2.388327E1,1.9102442E1,1.2894592E1,6.168129E0,2.8604132E1,7.0799713E0,0E0,0E0,0E0,3.8086975E1,9.392566E1,5.715821E0,2.5469452E1,2.7854385E0,1.2370819E1,4.3444786E0,3.6133556E0,1.3097305E0,1.0370155E1,0E0,6.7370796E-1,6.4213295E0,5.6663322E0,0E0,0E0,5.780037E0,1.4280746E1,2.180555E1,1.2421993E1,7.985418E0,0E0,4.577408E0,7.7842712E0,6.326294E-1,0E0,7.0279903E0,1.6226746E1,3.2983122E0,1.9483052E0,5.7540627E0,3.5403194E0,1.8020573E0,6.258583E-1,2.8979797E0,0E0,0E0,0E0,0E0,0E0,0E0,0E0,0E0,0E0,0E0,0E0,0E0,0E0,0E0,0E0,0E0,0E0,0E0,0E0,0E0,0E0,0E0,0E0,0E0,0E0,0E0,0E0,0E0,0E0,0E0,0E0,0E0,0E0,0E0,0E0,0E0,0E0,0E0,0E0,0E0,0E0],"parents":[2147483647,0,0,1,1,2,2,3,3,4,4,5,5,6,6,7,7,8,8,9,9,10,10,11,11,12,12,13,13,14,14,15,15,16,16,17,17,21,21,22,22,23,23,24,24,25,25,26,26,27,27,28,28,29,29,30,30,32,32,33,33,34,34,37,37,38,38,39,39,40,40,41,41,43,43,44,44,45,45,47,47,48,48,49,49,50,50,51,51,52,52,53,53,54,54,55,55],"right_children":[2,4,6,8,10,12,14,16,18,20,22,24,26,28,30,32,34,36,-1,-1,-1,38,40,42,44,46,48,50,52,54,56,-1,58,60,62,-1,-1,64,66,68,70,72,-1,74,76,78,-1,80,82,84,86,88,90,92,94,96,-1,-1,-1,-1,-1,-1,-1,-1,-1,-1,-1,-1,-1,-1,-1,-1,-1,-1,-1,-1,-1,-1,-1,-1,-1,-1,-1,-1,-1,-1,-1,-1,-1,-1,-1,-1,-1,-1,-1,-1,-1],"split_conditions":[3.1213846E0,2.1917809E-2,5.39726E-1,1.392875E0,1.0678421E-1,2.5E1,2.2215666E1,8.042286E-1,1.69625E0,1.3999939E0,1.392875E0,1E1,7.945205E-2,4.9646997E2,1.9989E2,3.5E2,1.1728333E0,1.3999939E0,1.238239E-1,1.522477E-1,-2.6153231E-2,4.3168086E-1,2.1369863E-1,2E1,3.3815E1,1.55E2,7E0,5.05E1,1.1342466E0,1.58E3,2.5E1,7.51667E-2,7.090106E-1,2.714E2,3.351999E1,5.6690615E-2,9.668219E-2,1.3999939E0,9.863014E-2,4.109589E-2,1.3999939E0,2.1369863E-1,9.126979E-2,1.97E2,9.208E3,1.4489E2,4.1621782E-2,2.5211E2,1.514E2,2.3353003E2,8.082192E-1,2.6E1,2E0,1.9789E2,2.131507E0,3.6E1,-1.8541234E-2,4.705229E-2,2.7412733E-2,1.8252844E-2,1.8053247E-3,2.3837663E-2,4.7710493E-2,5.9712954E-2,-2.7713848E-2,-4.9389857E-3,-1.0663228E-2,3.9644223E-2,1.497222E-2,-6.1388467E-3,1.5041054E-3,-2.1954248E-2,5.146826E-2,9.6855454E-2,6.464373E-2,1.3339324E-1,-4.1998117E-3,7.31513E-2,1.0920787E-1,2.8268391E-2,-2.5848001E-2,3.1911198E-2,5.4089386E-2,1.2435694E-2,-1.5789019E-2,8.2863E-3,-8.471077E-4,2.6658494E-2,9.160384E-2,-8.25509E-3,3.6729585E-2,3.498365E-2,4.8022117E-3,5.6676056E-2,7.037042E-3,4.9564466E-2,1.06397204E-1],"split_indices":[4,2,2,4,4,1,4,4,4,6,4,10,2,6,6,10,4,6,0,0,0,4,2,1,4,1,10,1,2,10,1,0,4,0,6,0,0,6,2,2,6,2,0,10,10,6,0,6,6,6,2,10,10,6,2,10,0,0,0,0,0,0,0,0,0,0,0,0,0,0,0,0,0,0,0,0,0,0,0,0,0,0,0,0,0,0,0,0,0,0,0,0,0,0,0,0,0],"split_type":[0,0,0,0,0,0,0,0,0,0,0,0,0,0,0,0,0,0,0,0,0,0,0,0,0,0,0,0,0,0,0,0,0,0,0,0,0,0,0,0,0,0,0,0,0,0,0,0,0,0,0,0,0,0,0,0,0,0,0,0,0,0,0,0,0,0,0,0,0,0,0,0,0,0,0,0,0,0,0,0,0,0,0,0,0,0,0,0,0,0,0,0,0,0,0,0,0],"sum_hessian":[1.146E4,1.0264E4,1.196E3,6.12E2,9.652E3,5.6E2,6.36E2,5.03E2,1.09E2,4.4E1,9.608E3,1.29E2,4.31E2,5.56E2,8E1,4.9E1,4.54E2,5.7E1,5.2E1,2.9E1,1.5E1,6.777E3,2.831E3,1.5E1,1.14E2,3.7E1,3.94E2,5.14E2,4.2E1,5.8E1,2.2E1,1.9E1,3E1,3.47E2,1.07E2,3.1E1,2.6E1,3.14E2,6.463E3,7.06E2,2.125E3,1.3E1,2E0,8.2E1,3.2E1,3E1,7E0,2.2E1,3.72E2,2.44E2,2.7E2,1.5E1,2.7E1,4.7E1,1.1E1,2E1,2E0,1.2E1,1.8E1,7.5E1,2.72E2,5.9E1,4.8E1,1E0,3.13E2,1.391E3,5.072E3,1.05E2,6.01E2,1.07E3,1.055E3,7E0,6E0,2.1E1,6.1E1,3.1E1,1E0,2.1E1,9E0,1.1E1,1.1E1,2.4E2,1.32E2,2.34E2,1E1,8.4E1,1.86E2,8E0,7E0,5E0,2.2E1,4.1E1,6E0,1E1,1E0,6E0,1.4E1],"tree_param":{"num_deleted":"0","num_feature":"11","num_nodes":"97","size_leaf_vector":"1"}},{"base_weights":[2.5890293E-3,6.133026E-1,-6.462943E-2,-5.5549914E-1,7.3813665E-1,6.052068E-1,-1.0640552E-1,-2.838021E-2,1.9098831E-2,1.5189557E0,5.5286115E-1,1.2961227E0,2.1265952E-1,-1.1654596E-1,1.7770823E0,2.1437E0,9.900558E-1,9.0908474E-1,2.4708775E-1,2.14418E0,1.0455323E0,7.673568E-1,1.6220173E-1,9.9330544E-2,-1.6832247E-1,1.449167E-1,-2.509279E-2,1.8700291E0,1.4704114E-1,6.9718343E-1,1.5332114E0,1.7454493E0,8.2260376E-1,1.6200897E-1,5.134283E-1,1.2903722E-1,1.4910899E0,8.453519E-1,1.9223039E0,9.953242E-1,5.076607E-1,1.0574558E-1,6.610969E-1,8.1509195E-2,1.741057E0,-5.274245E-1,-1.4317109E-1,9.410399E-3,9.587118E-2,4.471779E-2,2.631442E-2,3.485671E-2,8.525291E-2,1.1799836E-1,6.827317E-2,3.3131417E-2,6.483763E-2,1.3703679E-2,4.1295234E-3,2.3520222E-2,9.312301E-2,7.883259E-2,-7.642782E-3,5.390957E-2,2.3083605E-2,6.628783E-2,1.0530422E-1,6.645936E-2,3.8663547E-2,2.7069962E-2,8.48738E-3,1.913758E-2,5.3306285E-4,4.5152772E-2,1.9853922E-2,1.9410718E-2,-1.0208151E-3,1.00283764E-1,-2.1350281E-2,6.1676577E-3,-2.6576335E-2,-7.991371E-3,3.3892994E-3],"categories":[],"categories_nodes":[],"categories_segments":[],"categories_sizes":[],"default_left":[0,0,0,0,0,0,0,0,0,0,0,0,0,0,0,0,0,0,0,0,0,0,0,0,0,0,0,0,0,0,0,0,0,0,0,0,0,0,0,0,0,0,0,0,0,0,0,0,0,0,0,0,0,0,0,0,0,0,0,0,0,0,0,0,0,0,0,0,0,0,0,0,0,0,0,0,0,0,0,0,0,0,0],"id":2,"left_children":[1,3,5,7,9,11,13,-1,-1,15,17,19,21,23,25,27,29,31,33,35,37,39,41,43,45,-1,-1,47,-1,49,51,53,55,57,59,-1,61,63,65,67,69,71,73,75,77,79,81,-1,-1,-1,-1,-1,-1,-1,-1,-1,-1,-1,-1,-1,-1,-1,-1,-1,-1,-1,-1,-1,-1,-1,-1,-1,-1,-1,-1,-1,-1,-1,-1,-1,-1,-1,-1],"loss_changes":[4.6950143E2,1.6586774E2,2.8837466E2,1.4651184E0,1.4744354E2,1.6381075E2,1.8545215E2,0E0,0E0,6.2641357E1,9.018202E1,4.429892E1,1.0707199E1,1.0785565E2,1.3432822E2,1.3915863E1,1.6111198E1,2.6266418E1,1.0068464E1,1.0122574E1,2.8387619E1,1.389185E0,9.957082E0,5.4482376E1,7.0210846E1,0E0,0E0,5.139038E0,0E0,1.95541E0,4.1273956E0,4.950348E0,2.5613113E1,3.0122652E0,5.3922634E0,0E0,3.3354988E0,1.2098579E1,6.064987E-1,1.5834332E-1,1.0191107E-1,8.450714E0,1.9411507E0,5.7778397E1,1.2330624E1,1.424408E0,2.5569977E1,0E0,0E0,0E0,0E0,0E0,0E0,0E0,0E0,0E0,0E0,0E0,0E0,0E0,0E0,0E0,0E0,0E0,0E0,0E0,0E0,0E0,0E0,0E0,0E0,0E0,0E0,0E0,0E0,0E0,0E0,0E0,0E0,0E0,0E0,0E0,0E0],"parents":[2147483647,0,0,1,1,2,2,3,3,4,4,5,5,6,6,9,9,10,10,11,11,12,12,13,13,14,14,15,15,16,16,17,17,18,18,19,19,20,20,21,21,22,22,23,23,24,24,27,27,29,29,30,30,31,31,32,32,33,33,34,34,36,36,37,37,38,38,39,39,40,40,41,41,42,42,43,43,44,44,45,45,46,46],"right_children":[2,4,6,8,10,12,14,-1,-1,16,18,20,22,24,26,28,30,32,34,36,38,40,42,44,46,-1,-1,48,-1,50,52,54,56,58,60,-1,62,64,66,68,70,72,74,76,78,80,82,-1,-1,-1,-1,-1,-1,-1,-1,-1,-1,-1,-1,-1,-1,-1,-1,-1,-1,-1,-1,-1,-1,-1,-1,-1,-1,-1,-1,-1,-1,-1,-1,-1,-1,-1,-1],"split_conditions":[8.5E1,-7.050293E-1,2.1917809E-2,2.2273972E0,2E1,8.8E1,1.9E3,-2.838021E-2,1.9098831E-2,5.39726E-1,3.0958903E-1,1.7E2,1.85E2,1.74E2,1.9145E2,1.9565E2,1.9145E2,7.945205E-2,1.518E2,1.03E2,1.53975E2,1.6E2,7.75E2,5.67275E2,-7.050293E-1,1.449167E-1,-2.509279E-2,2E0,1.4704114E-1,1.1342466E0,2.1499023E-1,4.109589E-2,1.53975E2,8.082192E-1,6.3163E2,1.2903722E-1,7.8425E1,3.95E2,1.88025E2,1.254E3,3.988E3,2.714E2,1E-2,2.1369863E-1,9.926997E1,6.027397E-2,2.232E2,9.410399E-3,9.587118E-2,4.471779E-2,2.631442E-2,3.485671E-2,8.525291E-2,1.1799836E-1,6.827317E-2,3.3131417E-2,6.483763E-2,1.3703679E-2,4.1295234E-3,2.3520222E-2,9.312301E-2,7.883259E-2,-7.642782E-3,5.390957E-2,2.3083605E-2,6.628783E-2,1.0530422E-1,6.645936E-2,3.8663547E-2,2.7069962E-2,8.48738E-3,1.913758E-2,5.3306285E-4,4.5152772E-2,1.9853922E-2,1.9410718E-2,-1.0208151E-3,1.00283764E-1,-2.1350281E-2,6.1676577E-3,-2.6576335E-2,-7.991371E-3,3.3892994E-3],"split_indices":[1,7,2,2,1,9,1,0,0,2,2,1,1,1,3,3,3,2,3,10,3,1,1,3,7,0,0,10,0,2,7,2,3,2,3,0,3,1,3,10,9,0,7,2,7,2,3,0,0,0,0,0,0,0,0,0,0,0,0,0,0,0,0,0,0,0,0,0,0,0,0,0,0,0,0,0,0,0,0,0,0,0,0],"split_type":[0,0,0,0,0,0,0,0,0,0,0,0,0,0,0,0,0,0,0,0,0,0,0,0,0,0,0,0,0,0,0,0,0,0,0,0,0,0,0,0,0,0,0,0,0,0,0,0,0,0,0,0,0,0,0,0,0,0,0,0,0,0,0,0,0,0,0,0,0,0,0,0,0,0,0,0,0,0,0,0,0,0,0],"sum_hessian":[1.1435E4,1.133E3,1.0302E4,1.09E2,1.024E3,6.04E2,9.698E3,1.08E2,1E0,1.95E2,8.29E2,2.18E2,3.86E2,9.647E3,5.1E1,8.8E1,1.07E2,3.82E2,4.47E2,4.8E1,1.7E2,3.1E1,3.55E2,1.866E3,7.781E3,3.4E1,1.7E1,6.8E1,2E1,7.1E1,3.6E1,3.4E1,3.48E2,3.4E2,1.07E2,2.7E1,2.1E1,1.4E2,3E1,1.5E1,1.6E1,3.2E2,3.5E1,1.847E3,1.9E1,5.08E2,7.273E3,2E0,6.6E1,3.1E1,4E1,7E0,2.9E1,1.1E1,2.3E1,2.62E2,8.6E1,1.4E2,2E2,1.05E2,2E0,2E1,1E0,8.6E1,5.4E1,9E0,2.1E1,4E0,1.1E1,1.4E1,2E0,8.1E1,2.39E2,1.7E1,1.8E1,4.6E2,1.387E3,1.7E1,2E0,3E0,5.05E2,6.741E3,5.32E2],"tree_param":{"num_deleted":"0","num_feature":"11","num_nodes":"83","size_leaf_vector":"1"}},{"base_weights":[-1.5214587E-3,-1.1084998E-1,3.342655E-1,4.4868007E-1,-1.5044165E-1,7.385771E-1,8.396229E-2,2.61967E-1,1.2484291E0,1.6918409E0,-1.6050759E-1,1.20876186E-1,6.6641825E-1,4.549167E-2,1.1427355E0,9.862608E-1,1.7036013E-1,8.912625E-1,1.6301396E0,-2.3645516E-2,1.358911E-1,-2.5298152E-2,-1.390352E-1,5.0375015E-1,1.306119E0,-2.6714627E-2,9.2814565E-2,6.5249014E-1,1.9243369E0,1.4666374E0,7.3202014E-1,9.836772E-2,5.553907E-1,3.3859268E-2,5.6434818E-2,5.8500826E-2,1.8456608E0,-1.7213662E-1,-3.9832212E-2,-2.7833661E-2,5.513753E-1,-2.7384588E-2,1.5724947E0,2.4046788E-2,4.170977E-1,-2.3937851E-2,8.726792E-1,6.5408766E-2,1.1488392E-1,8.351027E-2,4.6861257E-2,4.940074E-2,2.8142778E-2,1.764415E-2,1.143554E-3,1.8262632E-2,3.967999E-2,9.448507E-2,3.876781E-2,-3.8780912E-3,-9.427569E-3,6.868832E-3,-5.8180317E-3,1.9206678E-2,3.8323216E-2,6.1858E-2,1.02485776E-1,-3.7050962E-3,6.563393E-3,1.1902394E-2,3.662867E-2,4.8110086E-2,2.0135479E-2],"categories":[],"categories_nodes":[],"categories_segments":[],"categories_sizes":[],"default_left":[0,0,0,0,0,0,0,0,0,0,0,0,0,0,0,0,0,0,0,0,0,0,0,0,0,0,0,0,0,0,0,0,0,0,0,0,0,0,0,0,0,0,0,0,0,0,0,0,0,0,0,0,0,0,0,0,0,0,0,0,0,0,0,0,0,0,0,0,0,0,0,0,0],"id":3,"left_children":[1,3,5,7,9,11,13,15,17,19,21,-1,23,25,27,29,31,33,35,-1,-1,-1,37,39,41,-1,43,45,47,49,51,53,55,-1,-1,-1,57,59,61,-1,63,-1,65,67,69,-1,71,-1,-1,-1,-1,-1,-1,-1,-1,-1,-1,-1,-1,-1,-1,-1,-1,-1,-1,-1,-1,-1,-1,-1,-1,-1,-1],"loss_changes":[4.2103983E2,1.9173294E2,2.8501984E2,8.508604E1,1.5012799E2,1.2886829E2,7.0861855E1,3.0684858E1,1.327124E1,9.9008995E1,5.9553574E1,0E0,1.06938965E2,4.61713E1,2.2118141E1,5.2772217E0,1.142115E1,2.183754E0,2.8980255E0,0E0,0E0,0E0,2.4847946E1,4.2022263E1,1.0406763E2,0E0,3.4666824E1,1.0132244E1,2.2851334E0,2.6675797E-1,1.0028782E0,6.7171965E0,2.6541557E0,0E0,0E0,0E0,9.031677E-2,8.795364E0,2.5715054E1,0E0,2.8159317E1,0E0,2.674939E1,1.3522044E1,1.5189766E1,0E0,1.0009174E0,0E0,0E0,0E0,0E0,0E0,0E0,0E0,0E0,0E0,0E0,0E0,0E0,0E0,0E0,0E0,0E0,0E0,0E0,0E0,0E0,0E0,0E0,0E0,0E0,0E0,0E0],"parents":[2147483647,0,0,1,1,2,2,3,3,4,4,5,5,6,6,7,7,8,8,9,9,10,10,12,12,13,13,14,14,15,15,16,16,17,17,18,18,22,22,23,23,24,24,26,26,27,27,28,28,29,29,30,30,31,31,32,32,36,36,37,37,38,38,40,40,42,42,43,43,44,44,46,46],"right_children":[2,4,6,8,10,12,14,16,18,20,22,-1,24,26,28,30,32,34,36,-1,-1,-1,38,40,42,-1,44,46,48,50,52,54,56,-1,-1,-1,58,60,62,-1,64,-1,66,68,70,-1,72,-1,-1,-1,-1,-1,-1,-1,-1,-1,-1,-1,-1,-1,-1,-1,-1,-1,-1,-1,-1,-1,-1,-1,-1,-1,-1],"split_conditions":[5.6182384E-1,2.1917809E-2,3.0958903E-1,2.486877E-1,-2.2369452E0,2.1917809E-2,3.5209045E0,-2.2824582E-1,1E0,-6.1616E2,-1.251001E1,1.20876186E-1,1.7969313E0,-7.050293E-1,1.15E-1,9.3E1,1.5942252E-1,3.927475E-1,3.3136997E-1,-2.3645516E-2,1.358911E-1,-2.5298152E-2,2.2506762E-1,-7.050293E-1,-7.050293E-1,-2.6714627E-2,1.5514638E0,-1.251001E1,3.994156E0,-2.6649812E-1,-3.855575E-1,2.714E2,1.9E-1,3.3859268E-2,5.6434818E-2,5.8500826E-2,5.601686E-1,9E-1,2.1369863E-1,-2.7833661E-2,1E0,-2.7384588E-2,1E0,1E0,1E0,-2.3937851E-2,1.210959E0,6.5408766E-2,1.1488392E-1,8.351027E-2,4.6861257E-2,4.940074E-2,2.8142778E-2,1.764415E-2,1.143554E-3,1.8262632E-2,3.967999E-2,9.448507E-2,3.876781E-2,-3.8780912E-3,-9.427569E-3,6.868832E-3,-5.8180317E-3,1.9206678E-2,3.8323216E-2,6.1858E-2,1.02485776E-1,-3.7050962E-3,6.563393E-3,1.1902394E-2,3.662867E-2,4.8110086E-2,2.0135479E-2],"split_indices":[5,2,2,5,5,2,5,5,8,7,7,0,5,7,7,10,5,5,5,0,0,0,5,7,7,0,5,7,5,5,5,0,7,0,0,0,5,7,2,0,8,0,8,8,8,0,2,0,0,0,0,0,0,0,0,0,0,0,0,0,0,0,0,0,0,0,0,0,0,0,0,0,0],"split_type":[0,0,0,0,0,0,0,0,0,0,0,0,0,0,0,0,0,0,0,0,0,0,0,0,0,0,0,0,0,0,0,0,0,0,0,0,0,0,0,0,0,0,0,0,0,0,0,0,0,0,0,0,0,0,0,0,0,0,0,0,0,0,0,0,0,0,0,0,0,0,0,0,0],"sum_hessian":[1.1467E4,8.651E3,2.816E3,5.71E2,8.08E3,1.076E3,1.74E3,4.64E2,1.07E2,4.3E1,8.037E3,4.3E1,1.033E3,1.68E3,6E1,5.1E1,4.13E2,5.7E1,5E1,1.4E1,2.9E1,4.69E2,7.568E3,8.25E2,2.08E2,1.26E2,1.554E3,3.8E1,2.2E1,1.6E1,3.5E1,3.49E2,6.4E1,3.2E1,2.5E1,1.8E1,3.2E1,5.674E3,1.894E3,3.5E1,7.9E2,2.6E1,1.82E2,1.283E3,2.71E2,6E0,3.2E1,1E1,1.2E1,1E1,6E0,1.2E1,2.3E1,7.9E1,2.7E2,3.7E1,2.7E1,3E1,2E0,8.4E2,4.834E3,5.71E2,1.323E3,4.46E2,3.44E2,1.09E2,7.3E1,6.7E2,6.13E2,1.74E2,9.7E1,2.6E1,6E0],"tree_param":{"num_deleted":"0","num_feature":"11","num_nodes":"73","size_leaf_vector":"1"}},{"base_weights":[-1.257469E-3,-6.156195E-2,5.702506E-1,-1.486804E-1,8.899871E-2,-5.0820243E-1,7.032166E-1,1.5717121E0,-1.6192596E-1,2.4691857E-1,-3.908909E-2,-2.5913501E-2,5.7189226E-2,5.770378E-1,1.5744989E0,1.3151114E-1,-2.2810416E-2,-2.401585E-2,-1.3838102E-1,-2.5670497E-2,2.824798E-1,-1.6793582E-1,3.882294E-2,1.8117975E-2,-1.3828783E-2,3.917344E-1,9.359898E-1,1.2525269E0,1.07897855E-1,2.171423E-2,-1.7601064E-1,1.4073184E-1,6.775174E-1,-9.401039E-2,-1.913057E-1,2.0070966E-1,-8.800982E-3,7.553398E-1,2.889663E-1,1.3185239E0,6.850674E-1,1.9011792E0,9.938122E-1,6.607526E-3,-1.469595E-3,-4.848552E-3,-9.921132E-3,4.8369523E-2,3.0828172E-3,6.4350836E-2,2.7720133E-2,-3.530177E-3,-5.7982723E-3,-1.0453804E-2,-7.5141313E-3,7.1547474E-3,2.7286721E-2,-2.120179E-3,3.7414506E-3,4.6866067E-2,3.281724E-2,1.2803753E-2,3.1970203E-2,5.3801097E-2,7.911523E-2,2.4179978E-2,9.4129466E-2,5.3401887E-2,1.0134932E-1,4.4207893E-2,7.009473E-2],"categories":[],"categories_nodes":[],"categories_segments":[],"categories_sizes":[],"default_left":[0,0,0,0,0,0,0,0,0,0,0,0,0,0,0,0,0,0,0,0,0,0,0,0,0,0,0,0,0,0,0,0,0,0,0,0,0,0,0,0,0,0,0,0,0,0,0,0,0,0,0,0,0,0,0,0,0,0,0,0,0,0,0,0,0,0,0,0,0,0,0],"id":4,"left_children":[1,3,5,7,9,11,13,15,17,19,21,-1,23,25,27,-1,-1,-1,29,-1,31,33,35,-1,-1,37,39,41,-1,43,45,47,49,51,53,55,57,59,61,63,65,67,69,-1,-1,-1,-1,-1,-1,-1,-1,-1,-1,-1,-1,-1,-1,-1,-1,-1,-1,-1,-1,-1,-1,-1,-1,-1,-1,-1,-1],"loss_changes":[3.9286142E2,1.352586E2,1.5637402E2,1.491028E2,7.647002E1,7.1269226E-1,1.0562079E2,1.085287E2,4.853331E1,4.5920715E1,2.0967346E1,0E0,4.0578514E-1,5.6038086E1,2.0215668E1,0E0,0E0,0E0,3.6378693E1,0E0,9.050581E1,1.3416576E0,1.0039769E1,0E0,0E0,2.0744644E1,2.6740799E1,1.1703667E1,0E0,6.4944506E0,8.641296E0,7.7859535E1,3.132785E1,8.996689E-2,4.0379143E-1,5.8059444E0,2.8330288E0,1.6006699E0,4.896324E0,5.5257263E0,4.155172E1,1.4103699E-1,1.445385E0,0E0,0E0,0E0,0E0,0E0,0E0,0E0,0E0,0E0,0E0,0E0,0E0,0E0,0E0,0E0,0E0,0E0,0E0,0E0,0E0,0E0,0E0,0E0,0E0,0E0,0E0,0E0,0E0],"parents":[2147483647,0,0,1,1,2,2,3,3,4,4,5,5,6,6,7,7,8,8,9,9,10,10,12,12,13,13,14,14,18,18,20,20,21,21,22,22,25,25,26,26,27,27,29,29,30,30,31,31,32,32,33,33,34,34,35,35,36,36,37,37,38,38,39,39,40,40,41,41,42,42],"right_children":[2,4,6,8,10,12,14,16,18,20,22,-1,24,26,28,-1,-1,-1,30,-1,32,34,36,-1,-1,38,40,42,-1,44,46,48,50,52,54,56,58,60,62,64,66,68,70,-1,-1,-1,-1,-1,-1,-1,-1,-1,-1,-1,-1,-1,-1,-1,-1,-1,-1,-1,-1,-1,-1,-1,-1,-1,-1,-1,-1],"split_conditions":[3.3323498E0,1.2371341E0,-7.050293E-1,1.0678421E-1,1.44E0,6.5147E2,2.2215666E1,1.3999939E0,-1.251001E1,-7.050293E-1,1.3999939E0,-2.5913501E-2,8E0,1.5423999E2,1.9646997E2,1.3151114E-1,-2.2810416E-2,-2.401585E-2,9E-1,-2.5670497E-2,4.353003E1,2.2286E2,3.775E0,1.8117975E-2,-1.3828783E-2,2E-2,9E-1,1E-2,1.07897855E-1,4E-2,2.5E2,1E-2,2.25E-1,4.35E0,6.6647E2,2.614E2,1.9042E0,1E-2,1.3526E1,6.6646996E0,2.815E1,3.3815E1,1.8E-1,6.607526E-3,-1.469595E-3,-4.848552E-3,-9.921132E-3,4.8369523E-2,3.0828172E-3,6.4350836E-2,2.7720133E-2,-3.530177E-3,-5.7982723E-3,-1.0453804E-2,-7.5141313E-3,7.1547474E-3,2.7286721E-2,-2.120179E-3,3.7414506E-3,4.6866067E-2,3.281724E-2,1.2803753E-2,3.1970203E-2,5.3801097E-2,7.911523E-2,2.4179978E-2,9.4129466E-2,5.3401887E-2,1.0134932E-1,4.4207893E-2,7.009473E-2],"split_indices":[4,4,7,4,7,6,4,6,7,7,6,0,1,6,6,0,0,0,7,0,6,0,7,0,0,7,7,7,0,7,1,7,7,7,0,6,4,7,4,4,7,4,7,0,0,0,0,0,0,0,0,0,0,0,0,0,0,0,0,0,0,0,0,0,0,0,0,0,0,0,0],"split_type":[0,0,0,0,0,0,0,0,0,0,0,0,0,0,0,0,0,0,0,0,0,0,0,0,0,0,0,0,0,0,0,0,0,0,0,0,0,0,0,0,0,0,0,0,0,0,0,0,0,0,0,0,0,0,0,0,0,0,0,0,0,0,0,0,0,0,0,0,0,0,0],"sum_hessian":[1.1397E4,1.031E4,1.087E3,6.531E3,3.779E3,1.19E2,9.68E2,4.9E1,6.482E3,1.692E3,2.087E3,1.17E2,2E0,8.47E2,1.21E2,3.2E1,1.7E1,4.45E2,6.037E3,7.5E1,1.617E3,7.86E2,1.301E3,1E0,1E0,5.6E2,2.87E2,8E1,4.1E1,1.149E3,4.888E3,1.191E3,4.26E2,1.9E2,5.96E2,2.95E2,1.006E3,1.22E2,4.38E2,1.12E2,1.75E2,2.1E1,5.9E1,3.63E2,7.86E2,1.081E3,3.807E3,1.03E2,1.088E3,7E1,3.56E2,9.4E1,9.6E1,4.13E2,1.83E2,2.54E2,4.1E1,7.18E2,2.88E2,4E1,8.2E1,4.02E2,3.6E1,6.1E1,5.1E1,1.51E2,2.4E1,4E0,1.7E1,4.9E1,1E1],"tree_param":{"num_deleted":"0","num_feature":"11","num_nodes":"71","size_leaf_vector":"1"}},{"base_weights":[5.835225E-4,-6.1947208E-2,4.8819837E-1,5.309508E-1,-1.0047198E-1,-4.8626807E-1,5.9532267E-1,2.8629178E-1,1.6186743E0,1.4971461E0,-1.08007655E-1,-2.4775757E-2,1.7665027E-2,9.3365157E-1,2.6673162E-1,7.817875E-1,2.0286505E-1,1.3407655E0,2.1187358E0,-2.1573452E-2,1.2379181E-1,-1.7007346E-1,4.2609412E-2,7.7026033E-1,1.876103E0,1.5316504E-1,7.0052963E-1,1.1321639E0,5.3861636E-1,7.3419586E-2,6.063842E-1,9.899812E-1,8.418774E-2,9.232708E-2,1.288647E-1,-2.2833476E-2,-1.484923E-1,4.4460386E-1,-1.8114869E-2,5.335995E-1,1.0847796E0,1.5525725E0,2.3388612E0,3.171385E-2,3.34222E-1,4.9517158E-1,1.1041771E0,5.757944E-2,1.47065865E-2,3.4935642E-2,1.775509E-2,1.2674058E-2,-1.2226833E-3,2.021918E-2,4.0814947E-2,3.7946966E-2,5.4259915E-2,-3.1472594E-3,-8.347092E-3,1.5159311E-2,3.8483974E-2,6.8065072E-3,-3.4056045E-3,5.199946E-2,2.3608629E-2,4.4826407E-2,7.5788945E-2,7.9473145E-2,-9.143243E-3,8.805963E-2,1.3359086E-1,4.1542617E-3,-3.0182141E-3,1.449609E-2,4.854364E-2,1.9611027E-2,4.3892402E-2,7.441011E-2,4.2496722E-2],"categories":[],"categories_nodes":[],"categories_segments":[],"categories_sizes":[],"default_left":[0,0,0,0,0,0,0,0,0,0,0,0,0,0,0,0,0,0,0,0,0,0,0,0,0,0,0,0,0,0,0,0,0,0,0,0,0,0,0,0,0,0,0,0,0,0,0,0,0,0,0,0,0,0,0,0,0,0,0,0,0,0,0,0,0,0,0,0,0,0,0,0,0,0,0,0,0,0,0],"id":5,"left_children":[1,3,5,7,9,11,13,15,17,19,21,-1,-1,23,25,27,29,31,33,-1,-1,35,37,39,41,43,45,47,49,51,53,55,-1,-1,-1,-1,57,59,61,63,65,67,69,71,73,75,77,-1,-1,-1,-1,-1,-1,-1,-1,-1,-1,-1,-1,-1,-1,-1,-1,-1,-1,-1,-1,-1,-1,-1,-1,-1,-1,-1,-1,-1,-1,-1,-1],"loss_changes":[3.5061478E2,2.3285147E2,1.3672595E2,1.6506406E2,1.15388176E2,1.1843262E0,1.307114E2,2.0882233E1,1.3002014E1,8.600647E1,8.906726E1,0E0,0E0,8.786813E1,2.9402409E1,5.6099014E0,2.2781616E1,7.4770813E0,1.0877991E-1,0E0,0E0,4.1662903E1,6.7894554E1,3.6340607E1,9.094635E0,1.0456441E1,9.73188E0,1.3336563E-1,1.073987E0,5.8571053E0,4.164608E0,5.636978E-2,0E0,0E0,0E0,0E0,9.894943E0,1.6546211E1,1.8648745E1,8.3741455E0,1.5841949E1,3.6837769E0,1.641571E0,1.357847E0,5.1054363E0,2.9650345E0,2.738182E0,0E0,0E0,0E0,0E0,0E0,0E0,0E0,0E0,0E0,0E0,0E0,0E0,0E0,0E0,0E0,0E0,0E0,0E0,0E0,0E0,0E0,0E0,0E0,0E0,0E0,0E0,0E0,0E0,0E0,0E0,0E0,0E0],"parents":[2147483647,0,0,1,1,2,2,3,3,4,4,5,5,6,6,7,7,8,8,9,9,10,10,13,13,14,14,15,15,16,16,17,17,18,18,21,21,22,22,23,23,24,24,25,25,26,26,27,27,28,28,29,29,30,30,31,31,36,36,37,37,38,38,39,39,40,40,41,41,42,42,43,43,44,44,45,45,46,46],"right_children":[2,4,6,8,10,12,14,16,18,20,22,-1,-1,24,26,28,30,32,34,-1,-1,36,38,40,42,44,46,48,50,52,54,56,-1,-1,-1,-1,58,60,62,64,66,68,70,72,74,76,78,-1,-1,-1,-1,-1,-1,-1,-1,-1,-1,-1,-1,-1,-1,-1,-1,-1,-1,-1,-1,-1,-1,-1,-1,-1,-1,-1,-1,-1,-1,-1,-1],"split_conditions":[2.8976955E0,2.1917809E-2,-7.050293E-1,1.392875E0,1.0678421E-1,2.2273972E0,5.39726E-1,8.2796854E-1,1.7642609E0,-6.7446E2,1.3884791E0,-2.4775757E-2,1.7665027E-2,1.3526E1,1.1107833E1,3.5E2,1.1728333E0,1E0,8E-2,-2.1573452E-2,1.2379181E-1,-1.251001E1,7.945205E-2,1E0,1E0,1E0,1E0,9.6E2,7.607568E-1,2.8148E2,1E0,1.5077777E0,8.418774E-2,9.232708E-2,1.288647E-1,-2.2833476E-2,7.945205E-2,1.9042E0,3.0958903E-1,7.945205E-2,5.6296E0,1.5489E4,2.2215666E1,1.210959E0,2.4775E1,5.428E1,1.1342466E0,5.757944E-2,1.47065865E-2,3.4935642E-2,1.775509E-2,1.2674058E-2,-1.2226833E-3,2.021918E-2,4.0814947E-2,3.7946966E-2,5.4259915E-2,-3.1472594E-3,-8.347092E-3,1.5159311E-2,3.8483974E-2,6.8065072E-3,-3.4056045E-3,5.199946E-2,2.3608629E-2,4.4826407E-2,7.5788945E-2,7.9473145E-2,-9.143243E-3,8.805963E-2,1.3359086E-1,4.1542617E-3,-3.0182141E-3,1.449609E-2,4.854364E-2,1.9611027E-2,4.3892402E-2,7.441011E-2,4.2496722E-2],"split_indices":[4,2,7,4,4,2,2,4,4,7,4,0,0,4,4,10,4,8,7,0,0,7,2,8,8,8,8,1,4,0,8,4,0,0,0,0,2,4,2,2,4,10,4,2,7,4,2,0,0,0,0,0,0,0,0,0,0,0,0,0,0,0,0,0,0,0,0,0,0,0,0,0,0,0,0,0,0,0,0],"split_type":[0,0,0,0,0,0,0,0,0,0,0,0,0,0,0,0,0,0,0,0,0,0,0,0,0,0,0,0,0,0,0,0,0,0,0,0,0,0,0,0,0,0,0,0,0,0,0,0,0,0,0,0,0,0,0,0,0,0,0,0,0,0,0,0,0,0,0,0,0,0,0,0,0,0,0,0,0,0,0],"sum_hessian":[1.1497E4,1.0191E4,1.306E3,6.21E2,9.57E3,1.29E2,1.177E3,5.08E2,1.13E2,4.4E1,9.526E3,1.28E2,1E0,5.79E2,5.98E2,7.2E1,4.36E2,7.5E1,3.8E1,1.5E1,2.9E1,6.746E3,2.78E3,4.95E2,8.4E1,4.75E2,1.23E2,2.8E1,4.4E1,3.31E2,1.05E2,3.9E1,3.6E1,2.7E1,1.1E1,4.71E2,6.275E3,3.64E2,2.416E3,2.84E2,2.11E2,5.2E1,3.2E1,2.85E2,1.9E2,8.3E1,4E1,2.7E1,1E0,2.2E1,2.2E1,1.16E2,2.15E2,5.5E1,5E1,1.4E1,2.5E1,1.114E3,5.161E3,2.55E2,1.09E2,5.91E2,1.825E3,2.9E1,2.55E2,1.49E2,6.2E1,5.1E1,1E0,1.4E1,1.8E1,1.83E2,1.02E2,1.79E2,1.1E1,6.7E1,1.6E1,1.4E1,2.6E1],"tree_param":{"num_deleted":"0","num_feature":"11","num_nodes":"79","size_leaf_vector":"1"}},{"base_weights":[2.0839951E-3,-5.2644756E-2,5.2704066E-1,-1.3131118E-1,8.5177064E-2,-4.5650163E-1,6.361176E-1,1.4790138E0,-1.426418E-1,8.5867983E-1,6.288396E-2,-2.3338003E-2,5.8129728E-2,5.1934147E-1,1.4062444E0,1.20580494E-1,-2.1016464E-2,-2.1704318E-2,-1.2165389E-1,6.7607456E-1,1.3366988E0,1.6730049E-1,-4.435195E-2,-1.28636705E-2,1.7223401E-2,3.3900684E-1,8.2517064E-1,1.1106465E0,1.9386077E0,3.0520968E-2,-1.5866303E-1,4.851926E-1,8.5451573E-1,6.4159876E-1,1.687221E0,3.7694108E-2,4.0954956E-1,-1.6151346E-1,1.918194E-2,6.5251166E-1,2.0481895E-1,1.1957673E0,5.710511E-1,8.442174E-2,8.78392E-1,4.8975386E-2,9.9244766E-2,2.1379514E-2,3.4335896E-4,-4.893693E-3,-9.182562E-3,1.8075587E-2,2.724703E-2,5.208763E-2,3.3124015E-2,3.9064005E-2,4.3442348E-4,1.00762285E-1,4.419307E-2,1.109331E-2,-3.0203646E-3,-2.4241433E-2,2.659317E-2,-4.734753E-3,-9.121588E-3,-9.3050854E-4,6.0128556E-3,4.4794273E-2,2.7580222E-2,1.4718984E-2,4.0931683E-3,7.554301E-2,5.1011723E-2,2.1296298E-2,7.076385E-2,1.5315168E-2,4.6160072E-2],"categories":[],"categories_nodes":[],"categories_segments":[],"categories_sizes":[],"default_left":[0,0,0,0,0,0,0,0,0,0,0,0,0,0,0,0,0,0,0,0,0,0,0,0,0,0,0,0,0,0,0,0,0,0,0,0,0,0,0,0,0,0,0,0,0,0,0,0,0,0,0,0,0,0,0,0,0,0,0,0,0,0,0,0,0,0,0,0,0,0,0,0,0,0,0,0,0],"id":6,"left_children":[1,3,5,7,9,11,13,15,17,19,21,-1,23,25,27,-1,-1,-1,29,31,33,35,37,-1,-1,39,41,43,45,47,49,51,53,55,57,59,61,63,65,67,69,71,73,-1,75,-1,-1,-1,-1,-1,-1,-1,-1,-1,-1,-1,-1,-1,-1,-1,-1,-1,-1,-1,-1,-1,-1,-1,-1,-1,-1,-1,-1,-1,-1,-1,-1],"loss_changes":[3.2743735E2,1.1191094E2,1.15725586E2,1.20105316E2,6.4627426E1,5.9729767E-1,8.641412E1,8.249437E1,3.986551E1,8.261612E0,4.0843616E1,0E0,3.595584E-1,4.6213074E1,1.7832336E1,0E0,0E0,0E0,3.4297234E1,2.2421646E0,5.739624E0,5.8006268E1,1.3401806E1,0E0,0E0,2.2246819E1,2.8699997E1,9.789177E0,9.140015E-3,1.1192558E1,7.4221573E0,9.858513E-2,7.1214867E-1,9.6567535E-1,2.9621964E0,2.1784786E1,7.0708145E1,8.6748695E-1,4.4638157E0,3.4105835E0,4.094386E0,5.427536E0,2.2308128E1,0E0,1.306591E0,0E0,0E0,0E0,0E0,0E0,0E0,0E0,0E0,0E0,0E0,0E0,0E0,0E0,0E0,0E0,0E0,0E0,0E0,0E0,0E0,0E0,0E0,0E0,0E0,0E0,0E0,0E0,0E0,0E0,0E0,0E0,0E0],"parents":[2147483647,0,0,1,1,2,2,3,3,4,4,5,5,6,6,7,7,8,8,9,9,10,10,12,12,13,13,14,14,18,18,19,19,20,20,21,21,22,22,25,25,26,26,27,27,28,28,29,29,30,30,31,31,32,32,33,33,34,34,35,35,36,36,37,37,38,38,39,39,40,40,41,41,42,42,44,44],"right_children":[2,4,6,8,10,12,14,16,18,20,22,-1,24,26,28,-1,-1,-1,30,32,34,36,38,-1,-1,40,42,44,46,48,50,52,54,56,58,60,62,64,66,68,70,72,74,-1,76,-1,-1,-1,-1,-1,-1,-1,-1,-1,-1,-1,-1,-1,-1,-1,-1,-1,-1,-1,-1,-1,-1,-1,-1,-1,-1,-1,-1,-1,-1,-1,-1],"split_conditions":[3.3323498E0,1.2524074E0,-7.050293E-1,1.0678421E-1,1E-2,6.3163E2,2.2215666E1,1.88025E2,-1.251001E1,2.0103703E0,2.235E0,-2.3338003E-2,5.428E1,1.464E2,1.9646997E2,1.20580494E-1,-2.1016464E-2,-2.1704318E-2,9E-1,1.5868332E0,2E0,4.353003E1,1.3999939E0,-1.28636705E-2,1.7223401E-2,2.5E-2,9E-1,1E-2,1E0,1E-2,2.714E2,1.3884791E0,2.8148E2,5.2576E2,1.6E1,1.3E-1,-7.050293E-1,2.2286E2,2.0196059E0,1E-2,1.8E-1,2.9E-1,1.8750006E1,8.442174E-2,1E0,4.8975386E-2,9.9244766E-2,2.1379514E-2,3.4335896E-4,-4.893693E-3,-9.182562E-3,1.8075587E-2,2.724703E-2,5.208763E-2,3.3124015E-2,3.9064005E-2,4.3442348E-4,1.00762285E-1,4.419307E-2,1.109331E-2,-3.0203646E-3,-2.4241433E-2,2.659317E-2,-4.734753E-3,-9.121588E-3,-9.3050854E-4,6.0128556E-3,4.4794273E-2,2.7580222E-2,1.4718984E-2,4.0931683E-3,7.554301E-2,5.1011723E-2,2.1296298E-2,7.076385E-2,1.5315168E-2,4.6160072E-2],"split_indices":[4,4,7,4,3,3,4,3,7,4,7,0,4,6,6,0,0,0,7,4,9,6,6,0,0,3,7,3,9,3,0,4,0,0,9,7,7,0,4,3,7,7,7,0,9,0,0,0,0,0,0,0,0,0,0,0,0,0,0,0,0,0,0,0,0,0,0,0,0,0,0,0,0,0,0,0,0],"split_type":[0,0,0,0,0,0,0,0,0,0,0,0,0,0,0,0,0,0,0,0,0,0,0,0,0,0,0,0,0,0,0,0,0,0,0,0,0,0,0,0,0,0,0,0,0,0,0,0,0,0,0,0,0,0,0,0,0,0,0,0,0,0,0,0,0,0,0,0,0,0,0,0,0,0,0,0,0],"sum_hessian":[1.1395E4,1.032E4,1.075E3,6.57E3,3.75E3,1.07E2,9.68E2,4.5E1,6.525E3,1.04E2,3.646E3,1.05E2,2E0,8.42E2,1.26E2,3E1,1.5E1,4.37E2,6.088E3,7.7E1,2.7E1,1.847E3,1.799E3,1E0,1E0,5.31E2,3.11E2,8.3E1,4.3E1,1.191E3,4.897E3,3.9E1,3.8E1,1E1,1.7E1,1.204E3,6.43E2,6.32E2,1.167E3,1.58E2,3.73E2,1.25E2,1.86E2,2.2E1,6.1E1,3E0,4E1,6.6E1,1.125E3,1.428E3,3.469E3,1.5E1,2.4E1,1.7E1,2.1E1,8E0,2E0,1.1E1,6E0,4.18E2,7.86E2,7.7E1,5.66E2,1.52E2,4.8E2,8.5E2,3.17E2,4.4E1,1.14E2,2.15E2,1.58E2,4.2E1,8.3E1,1.6E2,2.6E1,5E0,5.6E1],"tree_param":{"num_deleted":"0","num_feature":"11","num_nodes":"77","size_leaf_vector":"1"}},{"base_weights":[-1.5307529E-3,-4.861068E-2,5.320265E-1,4.9745747E-1,-8.234355E-2,-4.3482283E-1,6.475949E-1,2.7160862E-1,1.5184518E0,1.3830717E0,-8.944673E-2,-2.2299998E-2,1.6792815E-2,1.0096194E0,3.3200955E-1,1.6446978E-1,7.194544E-1,1.3247843E0,1.1208538E-1,1.143986E-1,-2.0081367E-2,-1.4632788E-1,7.2985396E-2,8.109343E-1,1.7387416E0,2.2831708E-1,9.151608E-1,7.519416E-1,1.12472326E-1,1.1523906E0,5.846643E-1,1.0693221E0,1.776492E0,-2.0627033E-2,-1.2884559E-1,2.9404172E-1,-4.0189486E-2,7.5044864E-1,2.5262642E0,1.3854995E0,2.1112986E0,1.7817895E-1,1.3578236E0,6.43697E-1,1.3747126E0,5.334847E-2,2.9467458E-2,1.6590595E-2,-9.525178E-4,7.0155285E-2,4.5445144E-2,1.54664805E-2,4.1236617E-2,4.3166727E-2,5.8701754E-2,6.5497994E-2,1.00109935E-1,-2.1981222E-3,-7.354621E-3,4.0442996E-2,1.2004807E-2,-2.2634028E-2,-1.148359E-3,2.7853254E-2,5.0974336E-2,1.4611746E-1,-2.5962535E-2,7.156413E-2,-1.5723899E-2,2.1399198E-2,1.07261315E-1,4.3049846E-3,1.719838E-2,8.369129E-2,-2.8473035E-2,3.6204483E-2,9.570955E-3,4.5980133E-2,8.1705265E-2],"categories":[],"categories_nodes":[],"categories_segments":[],"categories_sizes":[],"default_left":[0,0,0,0,0,0,0,0,0,0,0,0,0,0,0,0,0,0,0,0,0,0,0,0,0,0,0,0,0,0,0,0,0,0,0,0,0,0,0,0,0,0,0,0,0,0,0,0,0,0,0,0,0,0,0,0,0,0,0,0,0,0,0,0,0,0,0,0,0,0,0,0,0,0,0,0,0,0,0],"id":7,"left_children":[1,3,5,7,9,11,13,15,17,19,21,-1,-1,23,25,27,29,31,-1,-1,-1,33,35,37,39,41,43,45,47,49,51,53,55,-1,57,59,61,63,65,67,69,71,73,75,77,-1,-1,-1,-1,-1,-1,-1,-1,-1,-1,-1,-1,-1,-1,-1,-1,-1,-1,-1,-1,-1,-1,-1,-1,-1,-1,-1,-1,-1,-1,-1,-1,-1,-1],"loss_changes":[2.884267E2,1.9439507E2,1.0430896E2,1.4117009E2,1.03569496E2,1.0111904E0,9.472049E1,2.4064442E1,1.257811E1,7.843769E1,9.1396866E1,0E0,0E0,5.4653046E1,2.6759956E1,1.2378618E1,4.986721E0,8.485825E0,0E0,0E0,0E0,3.404213E1,6.420807E1,2.985254E1,7.866226E0,2.127798E1,7.473461E0,1.0614796E0,1.0853216E1,6.7726135E-2,4.7684116E0,2.8058624E-1,6.414795E-1,0E0,1.0643417E1,2.3939812E1,1.2052275E1,1.4884262E1,1.3580261E1,3.9524689E0,1.2520905E0,5.542363E0,1.0697588E1,1.4612255E0,1.3305244E0,0E0,0E0,0E0,0E0,0E0,0E0,0E0,0E0,0E0,0E0,0E0,0E0,0E0,0E0,0E0,0E0,0E0,0E0,0E0,0E0,0E0,0E0,0E0,0E0,0E0,0E0,0E0,0E0,0E0,0E0,0E0,0E0,0E0,0E0],"parents":[2147483647,0,0,1,1,2,2,3,3,4,4,5,5,6,6,7,7,8,8,9,9,10,10,13,13,14,14,15,15,16,16,17,17,21,21,22,22,23,23,24,24,25,25,26,26,27,27,28,28,29,29,30,30,31,31,32,32,34,34,35,35,36,36,37,37,38,38,39,39,40,40,41,41,42,42,43,43,44,44],"right_children":[2,4,6,8,10,12,14,16,18,20,22,-1,-1,24,26,28,30,32,-1,-1,-1,34,36,38,40,42,44,46,48,50,52,54,56,-1,58,60,62,64,66,68,70,72,74,76,78,-1,-1,-1,-1,-1,-1,-1,-1,-1,-1,-1,-1,-1,-1,-1,-1,-1,-1,-1,-1,-1,-1,-1,-1,-1,-1,-1,-1,-1,-1,-1,-1,-1,-1],"split_conditions":[1.3053308E0,2.1917809E-2,-7.050293E-1,3.3136997E-1,-2.2369452E0,2.2273972E0,5.39726E-1,4.646997E1,6.633277E-1,1.3999939E0,4.197056E-1,-2.2299998E-2,1.6792815E-2,2.6046138E0,3.1007977E0,-2.5724795E-1,-1.7318605E-1,1.3E-1,1.1208538E-1,1.143986E-1,-2.0081367E-2,-1.251001E1,3.0958903E-1,1.8600006E0,5.5E-2,1.915E1,1.9646997E2,-4.2390835E-1,2.575E2,-2.6649812E-1,1.7807013E-1,4.3820986E-1,4.2981002E-1,-2.0627033E-2,7.945205E-2,4.109589E-2,-7.050293E-1,1.3999939E0,7.616997E1,1.02E2,1E0,1.3999939E0,9.926997E1,1.210959E0,3.994156E0,5.334847E-2,2.9467458E-2,1.6590595E-2,-9.525178E-4,7.0155285E-2,4.5445144E-2,1.54664805E-2,4.1236617E-2,4.3166727E-2,5.8701754E-2,6.5497994E-2,1.00109935E-1,-2.1981222E-3,-7.354621E-3,4.0442996E-2,1.2004807E-2,-2.2634028E-2,-1.148359E-3,2.7853254E-2,5.0974336E-2,1.4611746E-1,-2.5962535E-2,7.156413E-2,-1.5723899E-2,2.1399198E-2,1.07261315E-1,4.3049846E-3,1.719838E-2,8.369129E-2,-2.8473035E-2,3.6204483E-2,9.570955E-3,4.5980133E-2,8.1705265E-2],"split_indices":[5,2,7,5,5,2,2,6,5,6,5,0,0,5,5,5,5,7,0,0,0,7,2,7,7,7,6,5,1,5,5,5,5,0,2,2,7,6,7,9,10,6,7,2,5,0,0,0,0,0,0,0,0,0,0,0,0,0,0,0,0,0,0,0,0,0,0,0,0,0,0,0,0,0,0,0,0,0,0],"split_type":[0,0,0,0,0,0,0,0,0,0,0,0,0,0,0,0,0,0,0,0,0,0,0,0,0,0,0,0,0,0,0,0,0,0,0,0,0,0,0,0,0,0,0,0,0,0,0,0,0,0,0,0,0,0,0,0,0,0,0,0,0,0,0,0,0,0,0,0,0,0,0,0,0,0,0,0,0,0,0],"sum_hessian":[1.148E4,1.055E4,9.3E2,6.13E2,9.937E3,9.9E1,8.31E2,5.03E2,1.1E2,4.7E1,9.89E3,9.8E1,1E0,3.86E2,4.45E2,4.07E2,9.6E1,8.9E1,2.1E1,3.1E1,1.6E1,7.325E3,2.565E3,3.05E2,8.1E1,3.79E2,6.6E1,3.2E1,3.75E2,2.1E1,7.5E1,5.9E1,3E1,4.5E2,6.875E3,8.68E2,1.697E3,2.96E2,9E0,4.4E1,3.7E1,3.64E2,1.5E1,4.3E1,2.3E1,9E0,2.3E1,1.4E2,2.35E2,8E0,1.3E1,3.6E1,3.9E1,2.3E1,3.6E1,1.2E1,1.8E1,1.217E3,5.658E3,8.1E1,7.87E2,6.7E1,1.63E3,1.74E2,1.22E2,8E0,1E0,4.3E1,1E0,1E0,3.6E1,2.35E2,1.29E2,1.3E1,2E0,3.6E1,7E0,1E1,1.3E1],"tree_param":{"num_deleted":"0","num_feature":"11","num_nodes":"79","size_leaf_vector":"1"}},{"base_weights":[3.1964001E-3,-5.4413754E-2,4.4312215E-1,4.7445384E-1,-8.8371E-2,-4.193333E-1,5.418749E-1,2.650265E-1,1.4384624E0,1.2937621E0,-9.535761E-2,-2.1361612E-2,1.6372994E-2,8.503387E-1,2.6349285E-1,6.6992265E-1,1.4495449E-1,1.1512492E0,1.8525279E0,1.0719835E-1,-1.9136362E-2,-1.4411995E-1,3.791759E-2,6.933843E-1,1.6932237E0,2.2413489E-1,1.6648799E0,1.1039966E0,5.494042E-1,5.394468E-1,9.579322E-2,3.9725225E-2,1.3870016E0,1.8743607E0,2.3388749E-2,-1.9597871E-2,-1.263923E-1,4.0813324E-1,-1.3518236E-2,6.4572054E-1,2.1215565E0,1.4017869E0,2.1838722E0,1.506705E-1,6.905444E-1,9.3243696E-2,4.9370613E-2,6.887866E-2,3.277225E-2,3.6142677E-2,1.8397791E-2,2.3680802E-2,4.332335E-2,3.8577963E-4,1.8411249E-2,7.192597E-2,-1.4266744E-2,8.137471E-2,1.14993535E-1,-8.4206695E-3,-4.611513E-3,1.3691844E-2,3.16736E-2,5.979165E-3,-2.8086E-3,6.339713E-2,2.862747E-2,1.1655112E-1,-2.0274187E-2,5.6246776E-2,8.611167E-2,7.8203864E-2,1.246501E-1,1.9686616E-3,1.5741602E-2,2.5032852E-2,5.4378998E-2],"categories":[],"categories_nodes":[],"categories_segments":[],"categories_sizes":[],"default_left":[0,0,0,0,0,0,0,0,0,0,0,0,0,0,0,0,0,0,0,0,0,0,0,0,0,0,0,0,0,0,0,0,0,0,0,0,0,0,0,0,0,0,0,0,0,0,0,0,0,0,0,0,0,0,0,0,0,0,0,0,0,0,0,0,0,0,0,0,0,0,0,0,0,0,0,0,0],"id":8,"left_children":[1,3,5,7,9,11,13,15,17,19,21,-1,-1,23,25,27,29,31,33,-1,-1,35,37,39,41,43,45,47,49,51,53,-1,55,57,-1,-1,59,61,63,65,67,69,71,73,75,-1,-1,-1,-1,-1,-1,-1,-1,-1,-1,-1,-1,-1,-1,-1,-1,-1,-1,-1,-1,-1,-1,-1,-1,-1,-1,-1,-1,-1,-1,-1,-1],"loss_changes":[2.9067133E2,1.82163E2,1.13332794E2,1.2317529E2,9.214909E1,9.480438E-1,1.0213388E2,2.4405708E1,1.0830093E1,6.92378E1,6.163369E1,0E0,0E0,7.357236E1,3.4264652E1,5.4095573E0,7.5118856E0,4.532959E0,4.2323303E-1,0E0,0E0,3.0455048E1,4.839212E1,3.1168503E1,9.522064E0,2.0865826E1,4.619217E-1,2.0421925E0,2.6294556E0,5.1532936E-1,8.347467E0,0E0,3.7705002E0,6.6882324E-1,0E0,0E0,9.288109E0,9.207806E0,1.267841E1,2.0399384E1,8.885132E0,3.20813E0,2.0402527E0,9.67109E0,5.713032E0,0E0,0E0,0E0,0E0,0E0,0E0,0E0,0E0,0E0,0E0,0E0,0E0,0E0,0E0,0E0,0E0,0E0,0E0,0E0,0E0,0E0,0E0,0E0,0E0,0E0,0E0,0E0,0E0,0E0,0E0,0E0,0E0],"parents":[2147483647,0,0,1,1,2,2,3,3,4,4,5,5,6,6,7,7,8,8,9,9,10,10,13,13,14,14,15,15,16,16,17,17,18,18,21,21,22,22,23,23,24,24,25,25,26,26,27,27,28,28,29,29,30,30,32,32,33,33,36,36,37,37,38,38,39,39,40,40,41,41,42,42,43,43,44,44],"right_children":[2,4,6,8,10,12,14,16,18,20,22,-1,-1,24,26,28,30,32,34,-1,-1,36,38,40,42,44,46,48,50,52,54,-1,56,58,-1,-1,60,62,64,66,68,70,72,74,76,-1,-1,-1,-1,-1,-1,-1,-1,-1,-1,-1,-1,-1,-1,-1,-1,-1,-1,-1,-1,-1,-1,-1,-1,-1,-1,-1,-1,-1,-1,-1,-1],"split_conditions":[1.0639157E0,2.1917809E-2,-7.050293E-1,3.3136997E-1,-2.2369452E0,2.2273972E0,4.630137E-1,8.8E1,5.6182384E-1,1.9145E2,3.6311865E-1,-2.1361612E-2,1.6372994E-2,2.6046138E0,6.3163E2,5E-3,-1.8878014E-1,2.5E-2,2.9576E2,1.0719835E-1,-1.9136362E-2,-1.251001E1,7.945205E-2,5.1855E2,2.15E-1,2.8277574E0,1.630137E0,6E0,5.2576E2,1.25E-1,1.0506543E-1,3.9725225E-2,5.3900933E-1,8E-2,2.3388749E-2,-1.9597871E-2,1E0,8.789E1,3.0958903E-1,7.945205E-2,7.616997E1,3.5209045E0,3.1007977E0,5.25E0,2.1499023E-1,9.3243696E-2,4.9370613E-2,6.887866E-2,3.277225E-2,3.6142677E-2,1.8397791E-2,2.3680802E-2,4.332335E-2,3.8577963E-4,1.8411249E-2,7.192597E-2,-1.4266744E-2,8.137471E-2,1.14993535E-1,-8.4206695E-3,-4.611513E-3,1.3691844E-2,3.16736E-2,5.979165E-3,-2.8086E-3,6.339713E-2,2.862747E-2,1.1655112E-1,-2.0274187E-2,5.6246776E-2,8.611167E-2,7.8203864E-2,1.246501E-1,1.9686616E-3,1.5741602E-2,2.5032852E-2,5.4378998E-2],"split_indices":[5,2,7,5,5,2,2,9,5,3,5,0,0,5,3,7,5,3,6,0,0,7,2,3,3,5,2,9,0,3,5,0,5,3,0,0,8,6,2,2,7,5,5,3,7,0,0,0,0,0,0,0,0,0,0,0,0,0,0,0,0,0,0,0,0,0,0,0,0,0,0,0,0,0,0,0,0],"split_type":[0,0,0,0,0,0,0,0,0,0,0,0,0,0,0,0,0,0,0,0,0,0,0,0,0,0,0,0,0,0,0,0,0,0,0,0,0,0,0,0,0,0,0,0,0,0,0,0,0,0,0,0,0,0,0,0,0,0,0,0,0,0,0,0,0,0,0,0,0,0,0,0,0,0,0,0,0],"sum_hessian":[1.1467E4,1.014E4,1.327E3,6.11E2,9.529E3,1.36E2,1.191E3,5.03E2,1.08E2,4.7E1,9.482E3,1.35E2,1E0,5.64E2,6.27E2,1.14E2,3.89E2,6.6E1,4.2E1,3.1E1,1.6E1,6.942E3,2.54E3,4.77E2,8.7E1,6.11E2,1.6E1,2.3E1,9.1E1,4.2E1,3.47E2,2.8E1,3.8E1,4.1E1,1E0,4.62E2,6.48E3,3.09E2,2.231E3,4.63E2,1.4E1,5.7E1,3E1,5.29E2,8.2E1,1.1E1,5E0,1.3E1,1E1,4.5E1,4.6E1,3.7E1,5E0,2.63E2,8.4E1,3.7E1,1E0,2.9E1,1.2E1,2.904E3,3.576E3,1.95E2,1.14E2,5.41E2,1.69E3,4.7E1,4.16E2,1.3E1,1E0,3.3E1,2.4E1,1.2E1,1.8E1,3.16E2,2.13E2,5.7E1,2.5E1],"tree_param":{"num_deleted":"0","num_feature":"11","num_nodes":"77","size_leaf_vector":"1"}},{"base_weights":[1.196711E-3,-5.0701723E-2,4.3255383E-1,4.7060776E-1,-8.267429E-2,-3.9800522E-1,5.221966E-1,2.5771686E-1,1.427203E0,1.2880636E0,-8.926331E-2,-2.0335786E-2,1.596367E-2,8.2180035E-1,2.5150332E-1,1.521858E-1,6.8712604E-1,1.1513014E0,1.8605556E0,1.0108478E-1,-1.814443E-2,-1.3675353E-1,4.5942977E-2,6.7722946E-1,1.5621998E0,2.0268476E-1,1.1446359E0,6.6660243E-1,9.131684E-2,6.870254E-2,5.808139E-1,8.1125695E-1,7.1551405E-2,1.5959285E0,1.1437011E-1,-1.8608307E-2,-1.2028387E-1,2.8092676E-1,-3.283029E-2,4.86072E-1,1.0099119E0,1.3556088E0,2.0921826E0,1.6919746E-1,1.1367116E0,6.413846E-1,1.673967E0,4.501682E-2,2.4049964E-2,3.221441E-4,1.4559917E-2,2.1566523E-2,4.247217E-2,2.676729E-2,4.3906737E-2,6.0386207E-2,1.0064453E-1,-1.9738732E-3,-6.8689855E-3,3.1945784E-2,1.12028215E-2,-2.154046E-2,-1.0125659E-3,4.839146E-2,2.1135813E-2,4.567113E-2,1.11693166E-1,6.9301106E-2,-1.4010561E-2,5.317786E-2,1.1308398E-1,4.374593E-3,1.9873425E-2,6.869983E-2,-2.9340357E-2,3.492629E-2,7.0941932E-3,8.892824E-2,3.4879368E-2],"categories":[],"categories_nodes":[],"categories_segments":[],"categories_sizes":[],"default_left":[0,0,0,0,0,0,0,0,0,0,0,0,0,0,0,0,0,0,0,0,0,0,0,0,0,0,0,0,0,0,0,0,0,0,0,0,0,0,0,0,0,0,0,0,0,0,0,0,0,0,0,0,0,0,0,0,0,0,0,0,0,0,0,0,0,0,0,0,0,0,0,0,0,0,0,0,0,0,0],"id":9,"left_children":[1,3,5,7,9,11,13,15,17,19,21,-1,-1,23,25,27,29,31,33,-1,-1,35,37,39,41,43,45,47,49,-1,51,53,-1,55,-1,-1,57,59,61,63,65,67,69,71,73,75,77,-1,-1,-1,-1,-1,-1,-1,-1,-1,-1,-1,-1,-1,-1,-1,-1,-1,-1,-1,-1,-1,-1,-1,-1,-1,-1,-1,-1,-1,-1,-1,-1],"loss_changes":[2.5556677E2,1.6988177E2,9.148796E1,1.19582275E2,8.683854E1,8.795986E-1,8.957184E1,2.1783066E1,1.0651154E1,5.6448456E1,6.137156E1,0E0,0E0,5.5138123E1,2.5187641E1,1.2119499E1,6.139637E0,5.3071976E0,8.676758E-1,0E0,0E0,2.7378418E1,4.6007668E1,2.7554382E1,6.4704285E0,1.71357E1,6.917942E0,1.3455906E0,5.918817E0,0E0,3.0066833E0,1.3881874E-1,0E0,2.101242E0,0E0,0E0,9.128738E0,1.2560833E1,9.312757E0,8.19812E0,1.6855225E1,3.572403E0,1.4302521E0,9.962172E0,8.576605E0,3.86106E-1,1.8907547E-1,0E0,0E0,0E0,0E0,0E0,0E0,0E0,0E0,0E0,0E0,0E0,0E0,0E0,0E0,0E0,0E0,0E0,0E0,0E0,0E0,0E0,0E0,0E0,0E0,0E0,0E0,0E0,0E0,0E0,0E0,0E0,0E0],"parents":[2147483647,0,0,1,1,2,2,3,3,4,4,5,5,6,6,7,7,8,8,9,9,10,10,13,13,14,14,15,15,16,16,17,17,18,18,21,21,22,22,23,23,24,24,25,25,26,26,27,27,28,28,30,30,31,31,33,33,36,36,37,37,38,38,39,39,40,40,41,41,42,42,43,43,44,44,45,45,46,46],"right_children":[2,4,6,8,10,12,14,16,18,20,22,-1,-1,24,26,28,30,32,34,-1,-1,36,38,40,42,44,46,48,50,-1,52,54,-1,56,-1,-1,58,60,62,64,66,68,70,72,74,76,78,-1,-1,-1,-1,-1,-1,-1,-1,-1,-1,-1,-1,-1,-1,-1,-1,-1,-1,-1,-1,-1,-1,-1,-1,-1,-1,-1,-1,-1,-1,-1,-1],"split_conditions":[3.0155554E0,2.1917809E-2,-7.050293E-1,1.392875E0,1.0678421E-1,2.2273972E0,5.39726E-1,4.1399994E1,1.7642609E0,1.9145E2,1.467027E0,-2.0335786E-2,1.596367E-2,1.3526E1,5.428E1,7.840823E-1,7.7542853E-1,8E-2,8E-2,1.0108478E-1,-1.814443E-2,-1.251001E1,2.1369863E-1,1.4789E2,1.9565E2,2.4775E1,1.5E-1,6.800714E-1,1.087122E0,6.870254E-2,1.2371341E0,1.4810444E0,7.1551405E-2,2.0876923E0,1.1437011E-1,-1.8608307E-2,7.945205E-2,4.109589E-2,-7.050293E-1,7.945205E-2,2.675E0,1.8368E4,2.2215666E1,8.1156E0,9.926997E1,1.210959E0,1.210959E0,4.501682E-2,2.4049964E-2,3.221441E-4,1.4559917E-2,2.1566523E-2,4.247217E-2,2.676729E-2,4.3906737E-2,6.0386207E-2,1.0064453E-1,-1.9738732E-3,-6.8689855E-3,3.1945784E-2,1.12028215E-2,-2.154046E-2,-1.0125659E-3,4.839146E-2,2.1135813E-2,4.567113E-2,1.11693166E-1,6.9301106E-2,-1.4010561E-2,5.317786E-2,1.1308398E-1,4.374593E-3,1.9873425E-2,6.869983E-2,-2.9340357E-2,3.492629E-2,7.0941932E-3,8.892824E-2,3.4879368E-2],"split_indices":[4,2,7,4,4,2,2,6,4,3,4,0,0,4,4,4,4,3,3,0,0,7,2,6,3,7,7,4,4,0,4,4,0,4,0,0,2,2,7,2,7,10,4,4,7,2,2,0,0,0,0,0,0,0,0,0,0,0,0,0,0,0,0,0,0,0,0,0,0,0,0,0,0,0,0,0,0,0,0],"split_type":[0,0,0,0,0,0,0,0,0,0,0,0,0,0,0,0,0,0,0,0,0,0,0,0,0,0,0,0,0,0,0,0,0,0,0,0,0,0,0,0,0,0,0,0,0,0,0,0,0,0,0,0,0,0,0,0,0,0,0,0,0,0,0,0,0,0,0,0,0,0,0,0,0,0,0,0,0,0,0],"sum_hessian":[1.1414E4,1.0189E4,1.225E3,5.88E2,9.601E3,1.19E2,1.106E3,4.82E2,1.06E2,4.5E1,9.556E3,1.18E2,1E0,5.24E2,5.82E2,3.88E2,9.4E1,6.7E1,3.9E1,3.1E1,1.4E1,7.072E3,2.484E3,4.4E2,8.4E1,5.53E2,2.9E1,4E1,3.48E2,1.1E1,8.3E1,3.2E1,3.5E1,2.7E1,1.2E1,4.61E2,6.611E3,6.23E2,1.861E3,2.81E2,1.59E2,6.3E1,2.1E1,5.35E2,1.8E1,1.6E1,1.3E1,1.6E1,2.4E1,2.45E2,1.03E2,5.5E1,2.8E1,8E0,2.4E1,1.6E1,1.1E1,1.155E3,5.456E3,8.4E1,5.39E2,5.6E1,1.805E3,3.1E1,2.5E2,1.49E2,1E1,6.2E1,1E0,4E0,1.7E1,3.95E2,1.4E2,1.6E1,2E0,1.4E1,2E0,1.1E1,2E0],"tree_param":{"num_deleted":"0","num_feature":"11","num_nodes":"79","size_leaf_vector":"1"}},{"base_weights":[2.3505914E-3,-7.8459844E-2,2.4675275E-1,3.3546576E-1,-1.0805687E-1,5.471458E-1,6.497979E-2,1.9498548E-1,9.5707357E-1,1.1143707E0,-1.1543697E-1,1.7975308E0,4.8642278E-1,3.5198297E-2,8.301919E-1,6.9136477E-1,1.1156305E-1,6.706478E-1,1.2707306E0,9.6387014E-2,-1.7417088E-2,-1.771613E-2,-1.01029694E-1,1.5081501E0,1.00750506E-1,-2.1296598E-2,5.5012167E-1,-1.9230453E-2,6.5654516E-2,4.1763058E-1,1.3421623E0,5.539544E-1,5.0467562E-2,3.5381466E-2,3.405158E-1,2.4944395E-2,4.0964097E-2,4.818941E-2,1.6036241E0,-9.73987E-3,-1.19856834E-1,5.515005E-2,9.617608E-2,3.9809963E-1,1.1577148E0,5.317385E-2,1.1485183E0,-1.5860872E-2,5.385839E-1,4.4647634E-2,1.6513355E0,4.2628624E-2,1.9856777E-2,1.0027017E-2,-2.4926132E-3,9.927786E-3,2.5142407E-2,2.1457536E-2,8.195578E-2,-3.2143232E-3,7.255509E-3,-8.2399985E-3,-4.133438E-3,1.3545508E-2,2.9567806E-2,4.72848E-2,8.662268E-2,1.8840274E-2,1.2062375E-3,2.3801269E-2,7.665967E-2,3.6910836E-2,1.7631622E-2,9.440392E-2,3.7644263E-2],"categories":[],"categories_nodes":[],"categories_segments":[],"categories_sizes":[],"default_left":[0,0,0,0,0,0,0,0,0,0,0,0,0,0,0,0,0,0,0,0,0,0,0,0,0,0,0,0,0,0,0,0,0,0,0,0,0,0,0,0,0,0,0,0,0,0,0,0,0,0,0,0,0,0,0,0,0,0,0,0,0,0,0,0,0,0,0,0,0,0,0,0,0,0,0],"id":10,"left_children":[1,3,5,7,9,11,13,15,17,19,21,23,25,27,29,31,33,35,37,-1,-1,-1,39,41,-1,-1,43,-1,45,47,49,51,-1,53,55,-1,-1,-1,57,59,61,-1,-1,63,65,67,69,-1,71,-1,73,-1,-1,-1,-1,-1,-1,-1,-1,-1,-1,-1,-1,-1,-1,-1,-1,-1,-1,-1,-1,-1,-1,-1,-1],"loss_changes":[2.2477715E2,1.0481876E2,1.5438266E2,4.967518E1,7.214837E1,8.0063965E1,4.014807E1,1.9260952E1,8.580925E0,5.7778347E1,2.7277458E1,4.4830322E-2,5.9396393E1,2.1735447E1,1.3379936E1,2.3684044E0,6.9821873E0,1.046442E0,3.4612274E0,0E0,0E0,0E0,1.2865219E1,2.0855446E0,0E0,0E0,8.747299E1,0E0,2.1346472E1,3.5483742E0,2.5530586E0,1.9560328E0,0E0,4.2612844E0,2.204626E0,0E0,0E0,0E0,2.1361923E-1,1.08293495E1,1.0358757E1,0E0,0E0,1.8594482E1,2.151416E1,1.4722603E1,3.9266033E0,0E0,9.647074E-1,0E0,1.98172E0,0E0,0E0,0E0,0E0,0E0,0E0,0E0,0E0,0E0,0E0,0E0,0E0,0E0,0E0,0E0,0E0,0E0,0E0,0E0,0E0,0E0,0E0,0E0,0E0],"parents":[2147483647,0,0,1,1,2,2,3,3,4,4,5,5,6,6,7,7,8,8,9,9,10,10,11,11,12,12,13,13,14,14,15,15,16,16,17,17,18,18,22,22,23,23,26,26,28,28,29,29,30,30,31,31,33,33,34,34,38,38,39,39,40,40,43,43,44,44,45,45,46,46,48,48,50,50],"right_children":[2,4,6,8,10,12,14,16,18,20,22,24,26,28,30,32,34,36,38,-1,-1,-1,40,42,-1,-1,44,-1,46,48,50,52,-1,54,56,-1,-1,-1,58,60,62,-1,-1,64,66,68,70,-1,72,-1,74,-1,-1,-1,-1,-1,-1,-1,-1,-1,-1,-1,-1,-1,-1,-1,-1,-1,-1,-1,-1,-1,-1,-1,-1],"split_conditions":[5.6182384E-1,2.1917809E-2,3.0958903E-1,2.6923883E-1,-2.2369452E0,2.1917809E-2,3.5209045E0,-1.9187818E-1,1.3999939E0,1.3999939E0,-1.251001E1,6.633277E-1,-7.050293E-1,-7.050293E-1,8E-2,1.3999939E0,1.1970711E-1,3.707686E-1,3.9590847E-1,9.6387014E-2,-1.7417088E-2,-1.771613E-2,7.945205E-2,1.3999939E0,1.00750506E-1,-2.1296598E-2,1.7280384E0,-1.9230453E-2,5.2711E2,-1.251001E1,1.9989E2,-3.925489E-1,5.0467562E-2,2.8148E2,1.3999939E0,2.4944395E-2,4.0964097E-2,4.818941E-2,2.2286E2,2.1279752E-1,1E0,5.515005E-2,9.617608E-2,1.0148001E2,1.8289E2,3.5E1,1.33300295E1,-1.5860872E-2,1.1342466E0,4.4647634E-2,8E0,4.2628624E-2,1.9856777E-2,1.0027017E-2,-2.4926132E-3,9.927786E-3,2.5142407E-2,2.1457536E-2,8.195578E-2,-3.2143232E-3,7.255509E-3,-8.2399985E-3,-4.133438E-3,1.3545508E-2,2.9567806E-2,4.72848E-2,8.662268E-2,1.8840274E-2,1.2062375E-3,2.3801269E-2,7.665967E-2,3.6910836E-2,1.7631622E-2,9.440392E-2,3.7644263E-2],"split_indices":[5,2,2,5,5,2,5,5,6,6,7,5,7,7,7,6,5,5,5,0,0,0,2,6,0,0,5,0,6,7,6,5,0,0,6,0,0,0,0,5,8,0,0,6,6,1,7,0,2,0,1,0,0,0,0,0,0,0,0,0,0,0,0,0,0,0,0,0,0,0,0,0,0,0,0],"split_type":[0,0,0,0,0,0,0,0,0,0,0,0,0,0,0,0,0,0,0,0,0,0,0,0,0,0,0,0,0,0,0,0,0,0,0,0,0,0,0,0,0,0,0,0,0,0,0,0,0,0,0,0,0,0,0,0,0,0,0,0,0,0,0,0,0,0,0,0,0,0,0,0,0,0,0],"sum_hessian":[1.1379E4,8.552E3,2.827E3,5.7E2,7.982E3,1.065E3,1.762E3,4.66E2,1.04E2,4.7E1,7.935E3,4.8E1,1.017E3,1.697E3,6.5E1,6.6E1,4E2,5.6E1,4.8E1,3E1,1.7E1,4.5E2,7.485E3,2.4E1,2.4E1,6.6E1,9.51E2,1.14E2,1.583E3,3.7E1,2.8E1,4.8E1,1.8E1,3.01E2,9.9E1,2.8E1,2.8E1,2.7E1,2.1E1,1.28E3,6.205E3,1.4E1,1E1,7.62E2,1.89E2,1.566E3,1.7E1,5E0,3.2E1,1.3E1,1.5E1,1.5E1,3.3E1,1.02E2,1.99E2,5.4E1,4.5E1,1E0,2E1,9.47E2,3.33E2,2.808E3,3.397E3,4.61E2,3.01E2,1.4E2,4.9E1,1.28E2,1.438E3,7E0,1E1,1.4E1,1.8E1,1.1E1,4E0],"tree_param":{"num_deleted":"0","num_feature":"11","num_nodes":"75","size_leaf_vector":"1"}},{"base_weights":[1.9212182E-3,-7.455158E-2,2.3592238E-1,3.321956E-1,-1.0262528E-1,5.2330744E-1,6.401192E-2,1.8953255E-1,8.87283E-1,1.1576169E0,-1.0971905E-1,1.327441E0,4.4276714E-1,3.4454696E-2,8.70559E-1,6.24461E-1,8.723861E-2,6.9106007E-1,1.3228874E0,9.199714E-2,-1.6484892E-2,-3.338682E-1,-9.6247785E-2,1.6538756E0,9.733513E-1,2.8252608E-1,7.800756E-1,-1.816812E-2,6.474269E-2,4.5139888E-1,1.3634176E0,9.5987326E-1,3.9959434E-1,2.311686E-2,3.564008E-1,5.1456076E-1,7.866685E-1,4.704548E-2,7.874637E-2,-2.3832738E-2,-3.3940074E-1,-1.23567745E-1,-4.067788E-2,1.3504285E0,9.395149E-2,7.591802E-1,1.4915673E0,-2.1821229E-2,3.0844846E-1,-1.8594146E-2,9.4909894E-1,6.319342E-3,2.4655552E-1,-1.47235785E-2,5.3052646E-1,8.196171E-1,1.6199948E0,4.1214317E-2,7.163167E-2,2.7427483E-2,1.2616365E-2,1.3149303E-2,-2.016265E-3,9.2963455E-3,2.6321009E-2,5.107791E-2,2.118777E-2,4.0917423E-2,8.7831024E-4,-1.3279927E-2,7.06583E-3,-1.678242E-2,-2.1899318E-2,-3.3322498E-3,-7.3236683E-3,5.2893157E-3,-3.5660004E-3,5.22968E-2,8.708504E-2,2.3187207E-2,4.5300152E-2,4.563926E-2,9.286341E-2,1.00831995E-2,2.4531731E-2,3.841004E-2,7.627711E-2,-3.6613648E-3,4.7432696E-3,1.0403974E-2,5.580474E-2,3.7108965E-2,1.8321292E-2,4.6053726E-2,2.0589897E-2,8.688406E-2,3.868362E-2],"categories":[],"categories_nodes":[],"categories_segments":[],"categories_sizes":[],"default_left":[0,0,0,0,0,0,0,0,0,0,0,0,0,0,0,0,0,0,0,0,0,0,0,0,0,0,0,0,0,0,0,0,0,0,0,0,0,0,0,0,0,0,0,0,0,0,0,0,0,0,0,0,0,0,0,0,0,0,0,0,0,0,0,0,0,0,0,0,0,0,0,0,0,0,0,0,0,0,0,0,0,0,0,0,0,0,0,0,0,0,0,0,0,0,0,0,0],"id":11,"left_children":[1,3,5,7,9,11,13,15,17,19,21,23,25,27,29,31,33,35,37,-1,-1,39,41,43,45,47,49,-1,51,53,55,57,59,61,63,65,67,-1,-1,69,71,73,75,77,-1,79,81,-1,83,-1,85,87,89,-1,91,93,95,-1,-1,-1,-1,-1,-1,-1,-1,-1,-1,-1,-1,-1,-1,-1,-1,-1,-1,-1,-1,-1,-1,-1,-1,-1,-1,-1,-1,-1,-1,-1,-1,-1,-1,-1,-1,-1,-1,-1,-1],"loss_changes":[2.0364165E2,9.7973976E1,1.3844733E2,4.3703354E1,7.1860504E1,6.735092E1,4.1807953E1,1.9610342E1,8.744537E0,4.627412E1,2.4064049E1,9.370972E0,5.1397995E1,2.0434668E1,1.2192928E1,5.951973E0,6.187795E0,9.4519424E-1,1.7914429E0,0E0,0E0,7.6721954E-1,1.1425262E1,7.4198914E-1,4.1950035E0,1.2229977E1,6.012828E1,0E0,1.6728271E1,2.221887E0,2.5789795E0,9.3440247E-1,1.0022688E0,4.438991E0,1.9020119E0,9.9429035E-1,1.2038841E0,0E0,0E0,3.9688063E-1,1.7234802E-2,6.5707703E0,1.1151182E1,1.0376434E0,0E0,1.1414089E0,1.0563068E0,0E0,1.2099125E1,0E0,2.6774445E1,8.40989E0,1.2581577E1,0E0,8.394823E-1,7.584286E-2,4.4841003E-1,0E0,0E0,0E0,0E0,0E0,0E0,0E0,0E0,0E0,0E0,0E0,0E0,0E0,0E0,0E0,0E0,0E0,0E0,0E0,0E0,0E0,0E0,0E0,0E0,0E0,0E0,0E0,0E0,0E0,0E0,0E0,0E0,0E0,0E0,0E0,0E0,0E0,0E0,0E0,0E0],"parents":[2147483647,0,0,1,1,2,2,3,3,4,4,5,5,6,6,7,7,8,8,9,9,10,10,11,11,12,12,13,13,14,14,15,15,16,16,17,17,18,18,21,21,22,22,23,23,24,24,25,25,26,26,28,28,29,29,30,30,31,31,32,32,33,33,34,34,35,35,36,36,39,39,40,40,41,41,42,42,43,43,45,45,46,46,48,48,50,50,51,51,52,52,54,54,55,55,56,56],"right_children":[2,4,6,8,10,12,14,16,18,20,22,24,26,28,30,32,34,36,38,-1,-1,40,42,44,46,48,50,-1,52,54,56,58,60,62,64,66,68,-1,-1,70,72,74,76,78,-1,80,82,-1,84,-1,86,88,90,-1,92,94,96,-1,-1,-1,-1,-1,-1,-1,-1,-1,-1,-1,-1,-1,-1,-1,-1,-1,-1,-1,-1,-1,-1,-1,-1,-1,-1,-1,-1,-1,-1,-1,-1,-1,-1,-1,-1,-1,-1,-1,-1],"split_conditions":[1.7538683E0,2.1917809E-2,3.0958903E-1,1.2734857E0,1.0678421E-1,4.109589E-2,3.3815E1,8.529697E-1,1.6E-1,1.3999939E0,-7.050293E-1,2.1917809E-2,4.5086665E0,-7.050293E-1,1.15E-1,3.5E2,1.1548936E0,1.392875E0,1.4810444E0,9.199714E-2,-1.6484892E-2,7.945205E-2,1.1593714E0,1.9412415E0,3.4E-1,-7.050293E-1,-7.050293E-1,-1.816812E-2,4.017624E0,-2.2949993E1,5.428E1,2.464E2,7.607568E-1,2.714E2,7E-2,5E-3,1.1148001E2,4.704548E-2,7.874637E-2,-7.710503E1,-1.251001E1,2.714E2,7.945205E-2,1.3999939E0,9.395149E-2,1.9322857E0,2.026E0,-2.1821229E-2,1.1576001E2,-1.8594146E-2,1.764E2,1.3999939E0,1.6560001E1,-1.47235785E-2,1.1342466E0,1.210959E0,1.210959E0,4.1214317E-2,7.163167E-2,2.7427483E-2,1.2616365E-2,1.3149303E-2,-2.016265E-3,9.2963455E-3,2.6321009E-2,5.107791E-2,2.118777E-2,4.0917423E-2,8.7831024E-4,-1.3279927E-2,7.06583E-3,-1.678242E-2,-2.1899318E-2,-3.3322498E-3,-7.3236683E-3,5.2893157E-3,-3.5660004E-3,5.22968E-2,8.708504E-2,2.3187207E-2,4.5300152E-2,4.563926E-2,9.286341E-2,1.00831995E-2,2.4531731E-2,3.841004E-2,7.627711E-2,-3.6613648E-3,4.7432696E-3,1.0403974E-2,5.580474E-2,3.7108965E-2,1.8321292E-2,4.6053726E-2,2.0589897E-2,8.688406E-2,3.868362E-2],"split_indices":[4,2,2,4,4,2,4,4,7,6,7,2,4,7,7,10,4,4,4,0,0,2,4,4,7,7,7,0,4,7,4,6,4,0,7,7,6,0,0,7,7,0,2,6,0,4,4,0,6,0,6,6,7,0,2,2,2,0,0,0,0,0,0,0,0,0,0,0,0,0,0,0,0,0,0,0,0,0,0,0,0,0,0,0,0,0,0,0,0,0,0,0,0,0,0,0,0],"split_type":[0,0,0,0,0,0,0,0,0,0,0,0,0,0,0,0,0,0,0,0,0,0,0,0,0,0,0,0,0,0,0,0,0,0,0,0,0,0,0,0,0,0,0,0,0,0,0,0,0,0,0,0,0,0,0,0,0,0,0,0,0,0,0,0,0,0,0,0,0,0,0,0,0,0,0,0,0,0,0,0,0,0,0,0,0,0,0,0,0,0,0,0,0,0,0,0,0],"sum_hessian":[1.1378E4,8.576E3,2.802E3,5.53E2,8.023E3,1.048E3,1.754E3,4.41E2,1.12E2,4.4E1,7.979E3,9.4E1,9.54E2,1.693E3,6.1E1,8.3E1,3.58E2,7.9E1,3.3E1,3E1,1.4E1,4.51E2,7.528E3,4.7E1,4.7E1,6.48E2,3.06E2,1.19E2,1.574E3,3.4E1,2.7E1,3.2E1,5.1E1,2.9E2,6.8E1,3E1,4.9E1,1.5E1,1.8E1,8E0,4.43E2,5.046E3,2.482E3,2.3E1,2.4E1,3.5E1,1.2E1,2.2E1,6.26E2,3.9E1,2.67E2,1.192E3,3.82E2,3E0,3.1E1,1E1,1.7E1,2.7E1,5E0,2.4E1,2.7E1,6E1,2.3E2,3.5E1,3.3E1,3E0,2.7E1,4.7E1,2E0,3E0,5E0,4.31E2,1.2E1,1.449E3,3.597E3,4.29E2,2.053E3,1.5E1,8E0,1.3E1,2.2E1,6E0,6E0,3.96E2,2.3E2,2.05E2,6.2E1,6.28E2,5.64E2,3.67E2,1.5E1,1.2E1,1.9E1,7E0,3E0,1.4E1,3E0],"tree_param":{"num_deleted":"0","num_feature":"11","num_nodes":"97","size_leaf_vector":"1"}},{"base_weights":[3.6937098E-3,-4.2875037E-2,3.6492774E-1,3.9299107E-1,-7.1163446E-2,6.0649437E-1,1.6027299E-1,2.2960383E-1,1.2386749E0,9.9609166E-1,-7.6667696E-2,1.0349725E0,4.8577702E-1,1.22129E-1,9.3910176E-1,1.3149194E-1,6.16127E-1,8.295309E-1,1.4190142E0,8.515986E-2,-1.5816161E-2,-1.2263996E-1,2.5966132E-2,7.814399E-1,1.5922234E0,4.4426525E-1,1.2732333E0,4.5021766E-1,5.779807E-2,9.939251E-1,-2.0381153E-2,5.387725E-1,9.266362E-2,6.1058193E-2,5.3233373E-1,2.7429149E-2,5.165887E-2,1.1621853E0,8.527958E-2,-1.7134632E-1,-7.669779E-2,3.2032982E-1,-1.858516E-2,1.02403E0,-1.745236E-2,9.584547E-2,1.3207355E0,9.927863E-1,3.8656953E-1,2.282533E-1,1.6286231E0,3.015925E-1,8.240376E-1,1.0750613E-1,-2.7454274E-2,6.439345E-2,7.25023E-1,3.154142E-2,1.745271E-2,1.2541495E-2,-9.056567E-4,3.9214786E-2,1.9481948E-2,4.970441E-2,7.7512905E-2,-1.5275242E-2,-7.5883577E-3,-8.5270556E-4,-4.9947537E-3,1.0522372E-2,3.081283E-2,-3.9956337E-3,2.171679E-3,3.2847E-2,7.41226E-2,6.961705E-2,-9.944874E-3,8.5117854E-2,4.1361842E-2,2.7152864E-2,1.41501175E-2,6.79329E-5,3.974053E-2,9.030124E-2,-3.024507E-2,1.9275613E-2,-1.6639447E-2,7.122389E-2,2.94778E-2,3.713676E-3,8.7375045E-3,3.9744074E-3,-3.342929E-3,4.4716697E-2,-6.6738273E-3],"categories":[],"categories_nodes":[],"categories_segments":[],"categories_sizes":[],"default_left":[0,0,0,0,0,0,0,0,0,0,0,0,0,0,0,0,0,0,0,0,0,0,0,0,0,0,0,0,0,0,0,0,0,0,0,0,0,0,0,0,0,0,0,0,0,0,0,0,0,0,0,0,0,0,0,0,0,0,0,0,0,0,0,0,0,0,0,0,0,0,0,0,0,0,0,0,0,0,0,0,0,0,0,0,0,0,0,0,0,0,0,0,0,0,0],"id":12,"left_children":[1,3,5,7,9,11,13,15,17,19,21,23,25,27,29,31,33,35,37,-1,-1,39,41,43,45,47,49,51,53,55,-1,57,59,-1,61,-1,-1,63,-1,65,67,69,71,73,-1,-1,75,77,79,81,83,85,87,89,91,-1,93,-1,-1,-1,-1,-1,-1,-1,-1,-1,-1,-1,-1,-1,-1,-1,-1,-1,-1,-1,-1,-1,-1,-1,-1,-1,-1,-1,-1,-1,-1,-1,-1,-1,-1,-1,-1,-1,-1],"loss_changes":[1.928319E2,1.2522636E2,6.4616806E1,8.524528E1,5.6095036E1,3.053209E1,2.0977728E1,1.963869E1,6.2013702E0,4.6011528E1,4.4770496E1,1.7263626E1,1.4798042E1,1.4284017E1,2.8416023E0,6.528709E0,4.673229E0,1.3212795E0,3.0226593E0,0E0,0E0,1.46503525E1,3.850949E1,2.5587963E1,9.9419403E-1,1.3794212E1,8.169891E0,5.9185295E0,2.4099813E0,1.5956116E0,0E0,4.0853596E-1,6.6801004E0,0E0,3.074051E0,0E0,0E0,1.0030289E0,0E0,8.306587E0,4.6664677E0,1.2421925E1,9.706083E0,1.1815559E1,0E0,0E0,2.997284E0,3.5254478E0,6.4425583E0,8.9876187E-1,7.828392E0,4.440502E0,3.5247498E0,7.8927517E-1,8.902528E-1,0E0,2.8810873E0,0E0,0E0,0E0,0E0,0E0,0E0,0E0,0E0,0E0,0E0,0E0,0E0,0E0,0E0,0E0,0E0,0E0,0E0,0E0,0E0,0E0,0E0,0E0,0E0,0E0,0E0,0E0,0E0,0E0,0E0,0E0,0E0,0E0,0E0,0E0,0E0,0E0,0E0],"parents":[2147483647,0,0,1,1,2,2,3,3,4,4,5,5,6,6,7,7,8,8,9,9,10,10,11,11,12,12,13,13,14,14,15,15,16,16,17,17,18,18,21,21,22,22,23,23,24,24,25,25,26,26,27,27,28,28,29,29,31,31,32,32,34,34,37,37,39,39,40,40,41,41,42,42,43,43,46,46,47,47,48,48,49,49,50,50,51,51,52,52,53,53,54,54,56,56],"right_children":[2,4,6,8,10,12,14,16,18,20,22,24,26,28,30,32,34,36,38,-1,-1,40,42,44,46,48,50,52,54,56,-1,58,60,-1,62,-1,-1,64,-1,66,68,70,72,74,-1,-1,76,78,80,82,84,86,88,90,92,-1,94,-1,-1,-1,-1,-1,-1,-1,-1,-1,-1,-1,-1,-1,-1,-1,-1,-1,-1,-1,-1,-1,-1,-1,-1,-1,-1,-1,-1,-1,-1,-1,-1,-1,-1,-1,-1,-1,-1],"split_conditions":[2.8976955E0,2.1917809E-2,4.630137E-1,1.4488478E0,1.0678421E-1,2.5E1,5.67275E2,4.423999E1,1.5868332E0,1.88025E2,1.3506666E0,1.8075E2,5.1855E2,2E1,1.7E2,7.840823E-1,7.6605743E-1,1E-2,8E-2,8.515986E-2,-1.5816161E-2,1E0,7.945205E-2,1.814E2,1.1E1,7.945205E-2,7.6E1,1.9145E2,1.210959E0,8.082192E-1,-2.0381153E-2,7.166344E-1,2.6E2,6.1058193E-2,4E2,2.7429149E-2,5.165887E-2,2.0876923E0,8.527958E-2,5.635833E-1,2.714E2,1.9322857E0,4.8425E1,2.2215666E1,-1.745236E-2,9.584547E-2,3.3815E1,4.109589E-2,5.05E1,6.3163E2,6.3163E2,1.914E2,5E0,1.474E2,2.2286E2,6.439345E-2,1.25E2,3.154142E-2,1.745271E-2,1.2541495E-2,-9.056567E-4,3.9214786E-2,1.9481948E-2,4.970441E-2,7.7512905E-2,-1.5275242E-2,-7.5883577E-3,-8.5270556E-4,-4.9947537E-3,1.0522372E-2,3.081283E-2,-3.9956337E-3,2.171679E-3,3.2847E-2,7.41226E-2,6.961705E-2,-9.944874E-3,8.5117854E-2,4.1361842E-2,2.7152864E-2,1.41501175E-2,6.79329E-5,3.974053E-2,9.030124E-2,-3.024507E-2,1.9275613E-2,-1.6639447E-2,7.122389E-2,2.94778E-2,3.713676E-3,8.7375045E-3,3.9744074E-3,-3.342929E-3,4.4716697E-2,-6.6738273E-3],"split_indices":[4,2,2,4,4,1,3,6,4,3,4,3,3,1,1,4,4,3,3,0,0,8,2,6,1,2,1,3,2,2,0,4,1,0,1,0,0,4,0,4,0,4,3,4,0,0,4,2,1,3,3,6,1,3,0,0,1,0,0,0,0,0,0,0,0,0,0,0,0,0,0,0,0,0,0,0,0,0,0,0,0,0,0,0,0,0,0,0,0,0,0,0,0,0,0],"split_type":[0,0,0,0,0,0,0,0,0,0,0,0,0,0,0,0,0,0,0,0,0,0,0,0,0,0,0,0,0,0,0,0,0,0,0,0,0,0,0,0,0,0,0,0,0,0,0,0,0,0,0,0,0,0,0,0,0,0,0,0,0,0,0,0,0,0,0,0,0,0,0,0,0,0,0,0,0,0,0,0,0,0,0,0,0,0,0,0,0,0,0,0,0,0,0],"sum_hessian":[1.1461E4,1.0153E4,1.308E3,6.18E2,9.535E3,5.99E2,7.09E2,5.19E2,9.9E1,4.8E1,9.487E3,1.3E2,4.69E2,6.77E2,3.2E1,4.15E2,1.04E2,3.2E1,6.7E1,3.1E1,1.7E1,6.552E3,2.935E3,9.1E1,3.9E1,4.47E2,2.2E1,1.1E2,5.67E2,3.1E1,1E0,3.5E1,3.8E2,1.1E1,9.3E1,1.5E1,1.7E1,3.8E1,2.9E1,3.179E3,3.373E3,3.85E2,2.55E3,7.5E1,1.6E1,1.5E1,2.4E1,4.1E1,4.06E2,6E0,1.6E1,8E1,3E1,3.58E2,2.09E2,1.3E1,1.8E1,2.2E1,1.3E1,1.56E2,2.24E2,3.2E1,6.1E1,2.9E1,9E0,4.03E2,2.776E3,9.45E2,2.428E3,2.82E2,1.03E2,1.282E3,1.268E3,4.3E1,3.2E1,2.3E1,1E0,6E0,3.5E1,1.6E2,2.46E2,5E0,1E0,1.5E1,1E0,7.1E1,9E0,7E0,2.3E1,2.41E2,1.17E2,5.6E1,1.53E2,1.5E1,3E0],"tree_param":{"num_deleted":"0","num_feature":"11","num_nodes":"95","size_leaf_vector":"1"}},{"base_weights":[1.5266759E-3,-5.002576E-2,2.8290534E-1,1.0468365E0,-5.5583227E-2,-3.600775E-1,3.4319633E-1,8.228447E-2,-1.455766E-2,-1.0305402E-1,3.7714884E-2,-1.8300584E-2,1.3547837E-2,7.813083E-1,2.554502E-1,-1.5282266E-2,-8.805639E-2,1.8316378E-1,-3.024806E-2,6.0475034E-1,1.1605439E0,2.3465344E-1,1.08273E0,6.743877E-2,-1.0801348E-1,8.7377965E-2,4.6365938E-1,-1.22555815E-1,3.666093E-2,9.774031E-1,4.9994725E-1,9.2572856E-1,1.469545E0,8.795197E-1,2.1181688E-1,1.4705044E0,-3.12878E-1,1.7530663E-2,1.8954279E-3,-2.3003852E-3,-6.368366E-3,2.5053857E-2,1.5459554E-3,-1.9375963E-2,2.977222E-2,-2.5530008E-3,-7.173916E-3,6.867754E-3,-4.813476E-4,4.026224E-2,6.5600105E-2,1.9903433E-2,3.3752456E-2,5.994482E-2,3.385783E-2,8.0872945E-2,5.474047E-2,5.9632618E-2,3.024104E-2,5.3186617E-3,1.7815601E-2,5.5360286E-3,8.563526E-2,-3.644067E-2,1.42630385E-2],"categories":[],"categories_nodes":[],"categories_segments":[],"categories_sizes":[],"default_left":[0,0,0,0,0,0,0,0,0,0,0,0,0,0,0,0,0,0,0,0,0,0,0,0,0,0,0,0,0,0,0,0,0,0,0,0,0,0,0,0,0,0,0,0,0,0,0,0,0,0,0,0,0,0,0,0,0,0,0,0,0,0,0,0,0],"id":13,"left_children":[1,3,5,7,9,11,13,-1,-1,15,17,-1,-1,19,21,-1,23,25,27,29,31,33,35,37,39,41,43,45,47,49,51,53,55,57,59,61,63,-1,-1,-1,-1,-1,-1,-1,-1,-1,-1,-1,-1,-1,-1,-1,-1,-1,-1,-1,-1,-1,-1,-1,-1,-1,-1,-1,-1],"loss_changes":[1.6665627E2,5.9248154E1,6.908844E1,3.9740837E1,4.2796257E1,6.721058E-1,6.234659E1,0E0,0E0,1.9430931E1,3.2221195E1,0E0,0E0,1.7443512E1,2.309275E1,0E0,1.8514954E1,2.784795E1,1.372805E1,6.8146667E0,4.8070526E0,1.9326355E1,1.8319061E1,5.6646423E0,6.337593E0,1.8086168E1,2.9844303E1,1.3898182E0,6.009246E0,1.2476768E0,2.3714752E0,2.6511536E0,1.6918945E-1,3.1494331E0,1.9479534E1,8.373222E0,2.1981988E0,0E0,0E0,0E0,0E0,0E0,0E0,0E0,0E0,0E0,0E0,0E0,0E0,0E0,0E0,0E0,0E0,0E0,0E0,0E0,0E0,0E0,0E0,0E0,0E0,0E0,0E0,0E0,0E0],"parents":[2147483647,0,0,1,1,2,2,3,3,4,4,5,5,6,6,9,9,10,10,13,13,14,14,16,16,17,17,18,18,19,19,20,20,21,21,22,22,23,23,24,24,25,25,26,26,27,27,28,28,29,29,30,30,31,31,32,32,33,33,34,34,35,35,36,36],"right_children":[2,4,6,8,10,12,14,-1,-1,16,18,-1,-1,20,22,-1,24,26,28,30,32,34,36,38,40,42,44,46,48,50,52,54,56,58,60,62,64,-1,-1,-1,-1,-1,-1,-1,-1,-1,-1,-1,-1,-1,-1,-1,-1,-1,-1,-1,-1,-1,-1,-1,-1,-1,-1,-1,-1],"split_conditions":[8.525697E-1,-2.2369452E0,-7.050293E-1,1.9145E2,2.0671849E-1,6.3163E2,2.85E1,8.228447E-2,-1.455766E-2,-1.251001E1,8.25E-1,-1.8300584E-2,1.3547837E-2,1.8289E2,2.8830011E1,-1.5282266E-2,2.25E-1,3.9025E1,1.3999939E0,1E-2,3.5209045E0,1E-2,9.926997E1,1E-2,2.55E2,1E-2,-7.050293E-1,2.2286E2,3.9350007E0,3.994156E0,3.1007977E0,3.75E-1,1.631E3,2.2286E2,8.975E0,4.804E2,1.86E2,1.7530663E-2,1.8954279E-3,-2.3003852E-3,-6.368366E-3,2.5053857E-2,1.5459554E-3,-1.9375963E-2,2.977222E-2,-2.5530008E-3,-7.173916E-3,6.867754E-3,-4.813476E-4,4.026224E-2,6.5600105E-2,1.9903433E-2,3.3752456E-2,5.994482E-2,3.385783E-2,8.0872945E-2,5.474047E-2,5.9632618E-2,3.024104E-2,5.3186617E-3,1.7815601E-2,5.5360286E-3,8.563526E-2,-3.644067E-2,1.42630385E-2],"split_indices":[5,5,7,3,5,3,1,0,0,7,7,0,0,6,7,0,7,3,6,7,5,7,7,3,1,3,7,0,7,5,5,7,10,0,3,3,1,0,0,0,0,0,0,0,0,0,0,0,0,0,0,0,0,0,0,0,0,0,0,0,0,0,0,0,0],"split_type":[0,0,0,0,0,0,0,0,0,0,0,0,0,0,0,0,0,0,0,0,0,0,0,0,0,0,0,0,0,0,0,0,0,0,0,0,0,0,0,0,0,0,0,0,0,0,0,0,0,0,0,0,0,0,0,0,0,0,0,0,0,0,0,0,0],"sum_hessian":[1.1487E4,9.709E3,1.778E3,4.8E1,9.661E3,1.52E2,1.626E3,3.3E1,1.5E1,6.403E3,3.258E3,1.51E2,1E0,2.7E2,1.356E3,4.4E2,5.963E3,1.037E3,2.221E3,1.86E2,8.4E1,1.324E3,3.2E1,6.78E2,5.285E3,7.74E2,2.63E2,9.33E2,1.288E3,3.9E1,1.47E2,5E1,3.4E1,4.4E1,1.28E3,2.5E1,7E0,6.3E1,6.15E2,1.258E3,4.027E3,9.2E1,6.82E2,3.5E1,2.28E2,2.12E2,7.21E2,4.05E2,8.83E2,2.8E1,1.1E1,9.5E1,5.2E1,2.2E1,2.8E1,2.2E1,1.2E1,1.9E1,2.5E1,7.41E2,5.39E2,4E0,2.1E1,4E0,3E0],"tree_param":{"num_deleted":"0","num_feature":"11","num_nodes":"65","size_leaf_vector":"1"}},{"base_weights":[1.0724287E-3,-5.031792E-2,2.773164E-1,3.3735347E-1,-7.619706E-2,5.2480036E-1,1.0960843E-1,1.9183336E-1,1.0703118E0,9.850063E-1,-8.2076326E-2,-1.8330568E-2,6.027472E-1,6.393276E-2,6.265311E-1,1.1195624E-1,5.806291E-1,8.191579E-1,1.4421382E0,7.960554E-2,-1.4357227E-2,-2.9402074E-1,-6.946014E-2,5.088275E-1,1.3276367E0,4.6844542E-2,8.878059E-1,3.4019104E-1,1.0628791E0,3.247182E-1,2.405765E-2,8.654704E-1,4.2819762E-1,6.138158E-1,5.2328993E-2,5.6047857E-2,8.77287E-2,2.2624324E-3,-2.9545686E-1,-9.960714E-2,3.4704625E-3,9.799875E-1,4.192318E-1,1.1056736E0,1.6686568E0,-1.6492214E-2,8.06896E-2,1.2862993E0,2.5783616E-1,-1.4603252E-2,4.5649785E-1,6.953206E-1,1.3895364E0,3.8691845E-2,1.3684954E-2,9.991414E-3,-2.164173E-3,5.7594713E-2,3.6098834E-2,2.9117817E-2,6.442667E-3,2.3758598E-2,3.418089E-2,-1.8590946E-2,-1.4348772E-2,-2.424264E-3,-6.0208733E-3,1.1422555E-2,-1.6358426E-3,7.8543186E-2,3.995317E-2,1.4228179E-2,3.244817E-2,4.1795604E-2,6.759228E-2,9.455078E-2,6.3331306E-2,5.209161E-4,9.148092E-3,1.336456E-2,6.7731865E-2,-2.466847E-2,2.7147382E-2,3.1521097E-2,1.2758206E-2,4.1334365E-2,9.421487E-3,7.563877E-2,3.0540798E-2],"categories":[],"categories_nodes":[],"categories_segments":[],"categories_sizes":[],"default_left":[0,0,0,0,0,0,0,0,0,0,0,0,0,0,0,0,0,0,0,0,0,0,0,0,0,0,0,0,0,0,0,0,0,0,0,0,0,0,0,0,0,0,0,0,0,0,0,0,0,0,0,0,0,0,0,0,0,0,0,0,0,0,0,0,0,0,0,0,0,0,0,0,0,0,0,0,0,0,0,0,0,0,0,0,0,0,0,0,0],"id":14,"left_children":[1,3,5,7,9,11,13,15,17,19,21,-1,23,25,27,29,31,33,35,-1,-1,37,39,41,43,45,47,49,51,53,55,57,59,61,-1,-1,-1,-1,63,65,67,69,71,73,75,-1,77,79,81,-1,83,85,87,-1,-1,-1,-1,-1,-1,-1,-1,-1,-1,-1,-1,-1,-1,-1,-1,-1,-1,-1,-1,-1,-1,-1,-1,-1,-1,-1,-1,-1,-1,-1,-1,-1,-1,-1,-1],"loss_changes":[1.6273166E2,9.699081E1,7.45685E1,6.432409E1,5.6613327E1,5.066545E1,2.5294315E1,1.5649275E1,8.157227E0,3.90736E1,2.4077053E1,0E0,4.4802795E1,1.3853912E1,1.0508541E1,7.8655095E0,3.3634243E0,2.2529488E0,1.946785E0,0E0,0E0,2.5989914E-1,1.8704166E1,2.4622025E1,3.9077454E0,1.2367701E1,4.689123E0,4.104255E0,3.1160583E0,2.6065788E0,3.5477893E0,3.602581E-1,2.6014614E0,1.3879776E-2,0E0,0E0,0E0,0E0,2.197113E-1,6.3975525E0,2.027153E1,8.793732E0,1.5284096E1,2.123951E0,1.0785675E-1,0E0,6.3871603E0,4.7356033E-1,2.1954699E0,0E0,1.4499102E0,1.0428219E0,7.0744324E-1,0E0,0E0,0E0,0E0,0E0,0E0,0E0,0E0,0E0,0E0,0E0,0E0,0E0,0E0,0E0,0E0,0E0,0E0,0E0,0E0,0E0,0E0,0E0,0E0,0E0,0E0,0E0,0E0,0E0,0E0,0E0,0E0,0E0,0E0,0E0,0E0],"parents":[2147483647,0,0,1,1,2,2,3,3,4,4,5,5,6,6,7,7,8,8,9,9,10,10,12,12,13,13,14,14,15,15,16,16,17,17,18,18,21,21,22,22,23,23,24,24,25,25,26,26,27,27,28,28,29,29,30,30,31,31,32,32,33,33,38,38,39,39,40,40,41,41,42,42,43,43,44,44,46,46,47,47,48,48,50,50,51,51,52,52],"right_children":[2,4,6,8,10,12,14,16,18,20,22,-1,24,26,28,30,32,34,36,-1,-1,38,40,42,44,46,48,50,52,54,56,58,60,62,-1,-1,-1,-1,64,66,68,70,72,74,76,-1,78,80,82,-1,84,86,88,-1,-1,-1,-1,-1,-1,-1,-1,-1,-1,-1,-1,-1,-1,-1,-1,-1,-1,-1,-1,-1,-1,-1,-1,-1,-1,-1,-1,-1,-1,-1,-1,-1,-1,-1,-1],"split_conditions":[2.3456666E0,2.1917809E-2,3.0958903E-1,1.392875E0,1.0678421E-1,-7.050293E-1,2.2215666E1,4.711E1,1.7143077E0,1.3999939E0,-7.050293E-1,-1.8330568E-2,1.3526E1,3.1899994E1,1.8E-1,2.714E2,5E-3,1.3999939E0,1.3999939E0,7.960554E-2,-1.4357227E-2,6.027397E-2,1.33294E0,7.945205E-2,5.5E-2,-7.050293E-1,1.45E2,-1.251001E1,5.428E1,7.015473E-1,2E-2,7.435616E-1,5.5E2,1.5077777E0,5.2328993E-2,5.6047857E-2,8.77287E-2,2.2624324E-3,3.6E2,2.714E2,7.945205E-2,4.109589E-2,1.3646997E2,3.3815E1,2.1369863E-1,-1.6492214E-2,1.3999939E0,3.4725E1,6.328767E-1,-1.4603252E-2,1.1342466E0,1.210959E0,8E0,3.8691845E-2,1.3684954E-2,9.991414E-3,-2.164173E-3,5.7594713E-2,3.6098834E-2,2.9117817E-2,6.442667E-3,2.3758598E-2,3.418089E-2,-1.8590946E-2,-1.4348772E-2,-2.424264E-3,-6.0208733E-3,1.1422555E-2,-1.6358426E-3,7.8543186E-2,3.995317E-2,1.4228179E-2,3.244817E-2,4.1795604E-2,6.759228E-2,9.455078E-2,6.3331306E-2,5.209161E-4,9.148092E-3,1.336456E-2,6.7731865E-2,-2.466847E-2,2.7147382E-2,3.1521097E-2,1.2758206E-2,4.1334365E-2,9.421487E-3,7.563877E-2,3.0540798E-2],"split_indices":[4,2,2,4,4,7,4,6,4,6,7,0,4,7,7,0,7,6,6,0,0,2,4,2,7,7,1,7,4,4,7,4,1,4,0,0,0,0,1,0,2,2,6,4,2,0,6,7,2,0,2,2,1,0,0,0,0,0,0,0,0,0,0,0,0,0,0,0,0,0,0,0,0,0,0,0,0,0,0,0,0,0,0,0,0,0,0,0,0],"split_type":[0,0,0,0,0,0,0,0,0,0,0,0,0,0,0,0,0,0,0,0,0,0,0,0,0,0,0,0,0,0,0,0,0,0,0,0,0,0,0,0,0,0,0,0,0,0,0,0,0,0,0,0,0,0,0,0,0,0,0,0,0,0,0,0,0,0,0,0,0,0,0,0,0,0,0,0,0,0,0,0,0,0,0,0,0,0,0,0,0],"sum_hessian":[1.1461E4,9.664E3,1.797E3,6.04E2,9.06E3,7.25E2,1.072E3,5.05E2,9.9E1,4.9E1,9.011E3,5.8E1,6.67E2,9.86E2,8.6E1,4.2E2,8.5E1,6.1E1,3.8E1,3.3E1,1.6E1,5.05E2,8.506E3,5.92E2,7.5E1,9.67E2,1.9E1,5.3E1,3.3E1,1.22E2,2.98E2,2.8E1,5.7E1,3.4E1,2.7E1,2.1E1,1.7E1,2E0,5.03E2,6.018E3,2.488E3,9.3E1,4.99E2,4.8E1,2.7E1,7.9E1,8.88E2,1.1E1,8E0,8E0,4.5E1,1.7E1,1.6E1,1.1E1,1.11E2,8.2E1,2.16E2,7E0,2.1E1,3.7E1,2E1,1.4E1,2E1,4.6E1,4.57E2,1.742E3,4.276E3,3.44E2,2.144E3,2E1,7.3E1,3.16E2,1.83E2,2.5E1,2.3E1,1.5E1,1.2E1,5.27E2,3.61E2,1E0,1E1,2E0,6E0,2.3E1,2.2E1,1.3E1,4E0,1.3E1,3E0],"tree_param":{"num_deleted":"0","num_feature":"11","num_nodes":"89","size_leaf_vector":"1"}},{"base_weights":[-2.0156299E-4,-3.017594E-2,3.7766182E-1,2.4578907E-1,-6.263579E-2,-3.0876964E-1,4.648034E-1,1.3964707E-1,9.255822E-1,9.727818E-1,-6.736008E-2,-1.587698E-2,1.2890185E-2,6.563041E-1,1.2813863E-1,7.177779E-2,4.2467687E-1,1.2551012E0,5.8822024E-1,7.606069E-2,-1.35957E-2,-1.0318285E-1,4.485548E-2,1.431405E0,5.676364E-1,9.8495156E-2,7.5973576E-1,3.9632675E-1,3.3547424E-2,5.776093E-1,2.1216488E-1,1.0353615E0,1.653166E0,4.076734E-1,8.237323E-1,-2.738061E-1,-9.116283E-2,1.9961014E-1,-2.7372314E-2,1.7247155E0,1.1168838E0,4.1910002E-1,8.823788E-1,2.4242328E-2,2.2936459E-1,4.617958E-2,-2.6066953E-2,3.0010695E-2,1.5814828E-2,8.30455E-3,-2.4974905E-3,3.9076645E-2,2.1954408E-2,1.4792441E-2,4.925469E-3,3.445187E-2,6.2741034E-2,8.820333E-2,5.0398495E-2,1.12338215E-2,2.9438794E-2,3.2093063E-2,5.562948E-2,-9.469692E-4,-1.3881336E-2,-1.030293E-3,-5.2392795E-3,-1.9218922E-2,1.10941045E-2,-1.6435128E-2,-6.148747E-4,9.717437E-2,4.735123E-2,2.7553204E-2,6.481701E-2,3.013925E-2,1.4372157E-2,3.9568525E-2,8.094623E-2,-1.3817152E-3,7.671443E-3,7.2537796E-3,1.9407045E-2],"categories":[],"categories_nodes":[],"categories_segments":[],"categories_sizes":[],"default_left":[0,0,0,0,0,0,0,0,0,0,0,0,0,0,0,0,0,0,0,0,0,0,0,0,0,0,0,0,0,0,0,0,0,0,0,0,0,0,0,0,0,0,0,0,0,0,0,0,0,0,0,0,0,0,0,0,0,0,0,0,0,0,0,0,0,0,0,0,0,0,0,0,0,0,0,0,0,0,0,0,0,0,0],"id":15,"left_children":[1,3,5,7,9,11,13,15,17,19,21,-1,-1,23,25,27,29,31,33,-1,-1,35,37,39,41,43,45,47,49,51,53,55,57,59,61,63,65,67,69,71,73,75,77,79,81,-1,-1,-1,-1,-1,-1,-1,-1,-1,-1,-1,-1,-1,-1,-1,-1,-1,-1,-1,-1,-1,-1,-1,-1,-1,-1,-1,-1,-1,-1,-1,-1,-1,-1,-1,-1,-1,-1],"loss_changes":[1.2914163E2,9.46454E1,5.0269928E1,8.010667E1,4.630597E1,5.539007E-1,4.7882736E1,1.8598528E1,1.5936798E1,2.9766766E1,3.783565E1,0E0,0E0,3.176381E1,4.9990315E0,9.652245E0,5.889946E0,4.848671E0,2.8957787E0,0E0,0E0,1.4606125E1,2.5468008E1,2.5018082E0,1.9592743E1,2.52097E0,3.000443E0,1.1481581E0,7.733078E0,2.6793442E0,7.222364E-1,3.0115852E0,1.0688782E-2,1.3590703E0,9.669857E-1,4.5142746E-1,6.4050674E0,9.515039E0,7.0550013E0,2.0726242E0,1.9256744E0,6.888283E0,7.835144E0,1.1234342E0,1.2017012E0,0E0,0E0,0E0,0E0,0E0,0E0,0E0,0E0,0E0,0E0,0E0,0E0,0E0,0E0,0E0,0E0,0E0,0E0,0E0,0E0,0E0,0E0,0E0,0E0,0E0,0E0,0E0,0E0,0E0,0E0,0E0,0E0,0E0,0E0,0E0,0E0,0E0,0E0],"parents":[2147483647,0,0,1,1,2,2,3,3,4,4,5,5,6,6,7,7,8,8,9,9,10,10,13,13,14,14,15,15,16,16,17,17,18,18,21,21,22,22,23,23,24,24,25,25,26,26,27,27,28,28,29,29,30,30,31,31,32,32,33,33,34,34,35,35,36,36,37,37,38,38,39,39,40,40,41,41,42,42,43,43,44,44],"right_children":[2,4,6,8,10,12,14,16,18,20,22,-1,-1,24,26,28,30,32,34,-1,-1,36,38,40,42,44,46,48,50,52,54,56,58,60,62,64,66,68,70,72,74,76,78,80,82,-1,-1,-1,-1,-1,-1,-1,-1,-1,-1,-1,-1,-1,-1,-1,-1,-1,-1,-1,-1,-1,-1,-1,-1,-1,-1,-1,-1,-1,-1,-1,-1,-1,-1,-1,-1,-1,-1],"split_conditions":[4.017624E0,4.109589E-2,-7.050293E-1,1.5369655E0,1.0678421E-1,2.2273972E0,8.082192E-1,4.645E1,2.1917809E-2,1.9145E2,1.6084572E0,-1.587698E-2,1.2890185E-2,8E0,6.3163E2,7.934166E-1,2.1917809E-2,8.500061E-2,8.500061E-2,7.606069E-2,-1.35957E-2,-7.050293E-1,3.0958903E-1,1.674E3,1.6185E2,2.545E0,1.25E2,6.5448385E-1,2.625E2,3.85E2,4.55E2,1.7538683E0,3.15E2,1.8160001E0,1.9412415E0,7.945205E-2,2.2286E2,-7.050293E-1,-7.050293E-1,5.39726E-1,3.243E3,2.1369863E-1,5.339999E0,1.1107833E1,7.2460713E0,4.617958E-2,-2.6066953E-2,3.0010695E-2,1.5814828E-2,8.30455E-3,-2.4974905E-3,3.9076645E-2,2.1954408E-2,1.4792441E-2,4.925469E-3,3.445187E-2,6.2741034E-2,8.820333E-2,5.0398495E-2,1.12338215E-2,2.9438794E-2,3.2093063E-2,5.562948E-2,-9.469692E-4,-1.3881336E-2,-1.030293E-3,-5.2392795E-3,-1.9218922E-2,1.10941045E-2,-1.6435128E-2,-6.148747E-4,9.717437E-2,4.735123E-2,2.7553204E-2,6.481701E-2,3.013925E-2,1.4372157E-2,3.9568525E-2,8.094623E-2,-1.3817152E-3,7.671443E-3,7.2537796E-3,1.9407045E-2],"split_indices":[4,2,7,4,4,2,2,3,2,3,4,0,0,1,3,4,2,7,7,0,0,7,2,10,3,3,1,4,1,1,1,4,1,4,4,2,0,7,7,2,10,2,7,4,4,0,0,0,0,0,0,0,0,0,0,0,0,0,0,0,0,0,0,0,0,0,0,0,0,0,0,0,0,0,0,0,0,0,0,0,0,0,0],"split_type":[0,0,0,0,0,0,0,0,0,0,0,0,0,0,0,0,0,0,0,0,0,0,0,0,0,0,0,0,0,0,0,0,0,0,0,0,0,0,0,0,0,0,0,0,0,0,0,0,0,0,0,0,0,0,0,0,0,0,0,0,0,0,0,0,0,0,0,0,0,0,0,0,0,0,0,0,0,0,0,0,0,0,0],"sum_hessian":[1.14E4,1.0563E4,8.37E2,1.111E3,9.452E3,9.4E1,7.43E2,9.62E2,1.49E2,4.2E1,9.41E3,9.3E1,1E0,4.73E2,2.7E2,7.78E2,1.84E2,7.4E1,7.5E1,2.9E1,1.3E1,7.133E3,2.277E3,4.7E1,4.26E2,2.59E2,1.1E1,8.1E1,6.97E2,1.06E2,7.8E1,5E1,2.4E1,4.4E1,3.1E1,4.68E2,6.665E3,7.24E2,1.553E3,2.2E1,2.5E1,2.91E2,1.35E2,1.66E2,9.3E1,1E1,1E0,2.1E1,6E1,2.69E2,4.28E2,4.1E1,6.5E1,4.4E1,3.4E1,2.1E1,2.9E1,1.9E1,5E0,2.3E1,2.1E1,2.1E1,1E1,7E0,4.61E2,1.079E3,5.586E3,2.6E1,6.98E2,7.3E1,1.48E3,1.6E1,6E0,7E0,1.8E1,1.2E2,1.71E2,1.22E2,1.3E1,1.19E2,4.7E1,6.2E1,3.1E1],"tree_param":{"num_deleted":"0","num_feature":"11","num_nodes":"83","size_leaf_vector":"1"}},{"base_weights":[1.3676353E-3,-3.4119032E-2,3.136064E-1,2.3780532E-1,-6.7364074E-2,5.2123106E-1,1.3342863E-1,1.135915E-1,7.313809E-1,8.394319E-1,-7.2255E-2,4.3931758E-1,1.0740128E0,1.08785614E-1,1.0069302E0,4.072131E-1,6.2058263E-2,1.0224639E0,4.3640137E-1,1.4323258E0,-1.3061843E-2,3.7009906E-2,-9.919719E-2,9.732374E-1,3.9032638E-1,8.507443E-1,1.5123253E0,7.4378335E-1,8.141621E-2,1.3027577E0,2.9961077E-2,3.1310558E-1,7.824591E-1,-8.093585E-3,2.7108702E-1,7.9729736E-1,1.4078313E0,2.8952053E-1,7.186788E-1,7.2934166E-2,1.5381104E-2,1.4516893E-1,-1.566767E-2,-1.4458442E-1,-5.5376142E-2,7.429396E-1,1.4294958E0,3.5788077E-1,1.1202979E0,1.0781182E0,-1.2716673E-2,8.707174E-2,7.7260005E-1,3.7070906E-1,1.3658366E0,2.3119202E-2,1.8210207E-1,3.8017843E-2,7.923035E-2,2.8767515E-2,1.2532808E-2,5.7720184E-2,2.7650842E-2,5.050484E-3,-3.167177E-3,1.8924655E-2,5.357737E-3,2.8400213E-2,4.8120204E-2,5.449877E-2,8.868778E-2,1.0265915E-2,2.501366E-2,2.6874006E-2,5.5728864E-2,3.9052912E-3,1.2931667E-2,-3.5422917E-3,1.8737853E-3,-1.2455012E-2,-6.5592914E-3,-3.0628012E-3,1.1497426E-2,4.012759E-2,-1.0673176E-3,2.6935047E-2,7.768924E-2,1.3129981E-2,2.415502E-2,2.7293786E-2,1.0890814E-1,7.142483E-2,3.7851717E-2,4.812826E-2,-9.179759E-3,2.548672E-2,-3.2449327E-3,1.907502E-2,7.2059564E-2,6.1686817E-3,-1.1773356E-3,6.8466053E-3,1.4531639E-2],"categories":[],"categories_nodes":[],"categories_segments":[],"categories_sizes":[],"default_left":[0,0,0,0,0,0,0,0,0,0,0,0,0,0,0,0,0,0,0,0,0,0,0,0,0,0,0,0,0,0,0,0,0,0,0,0,0,0,0,0,0,0,0,0,0,0,0,0,0,0,0,0,0,0,0,0,0,0,0,0,0,0,0,0,0,0,0,0,0,0,0,0,0,0,0,0,0,0,0,0,0,0,0,0,0,0,0,0,0,0,0,0,0,0,0,0,0,0,0,0,0,0,0],"id":16,"left_children":[1,3,5,7,9,11,13,15,17,19,21,23,25,27,29,31,33,35,37,39,-1,41,43,45,47,49,51,53,55,57,-1,59,61,63,65,67,69,71,73,-1,-1,75,77,79,81,83,85,87,89,91,-1,-1,93,95,97,99,101,-1,-1,-1,-1,-1,-1,-1,-1,-1,-1,-1,-1,-1,-1,-1,-1,-1,-1,-1,-1,-1,-1,-1,-1,-1,-1,-1,-1,-1,-1,-1,-1,-1,-1,-1,-1,-1,-1,-1,-1,-1,-1,-1,-1,-1,-1],"loss_changes":[1.2627087E2,9.2523735E1,4.3437523E1,6.827635E1,4.0504112E1,2.3979523E1,1.3322507E1,1.3471824E1,1.8787224E1,3.2350586E1,2.6707203E1,1.19664E1,5.465828E0,1.0506182E1,1.2697544E0,4.4517E0,1.11466465E1,8.595993E0,4.4770374E0,4.998932E-1,0E0,1.0229385E1,1.4465332E1,3.0359077E0,9.878082E0,1.2334961E1,2.3830833E0,5.295475E0,3.4236853E0,1.7101097E-1,0E0,1.624505E0,1.5804291E0,3.4423304E0,3.322441E0,2.2169724E0,2.719101E0,1.2459693E0,2.126917E0,0E0,0E0,4.454054E0,3.5449386E0,4.9722214E0,6.228195E0,1.2928343E0,4.915638E-1,4.8483925E0,9.748896E0,3.4186096E0,0E0,0E0,1.4482279E0,1.0626097E0,1.17752075E-1,1.7386155E0,1.0093021E0,0E0,0E0,0E0,0E0,0E0,0E0,0E0,0E0,0E0,0E0,0E0,0E0,0E0,0E0,0E0,0E0,0E0,0E0,0E0,0E0,0E0,0E0,0E0,0E0,0E0,0E0,0E0,0E0,0E0,0E0,0E0,0E0,0E0,0E0,0E0,0E0,0E0,0E0,0E0,0E0,0E0,0E0,0E0,0E0,0E0,0E0],"parents":[2147483647,0,0,1,1,2,2,3,3,4,4,5,5,6,6,7,7,8,8,9,9,10,10,11,11,12,12,13,13,14,14,15,15,16,16,17,17,18,18,19,19,21,21,22,22,23,23,24,24,25,25,26,26,27,27,28,28,29,29,31,31,32,32,33,33,34,34,35,35,36,36,37,37,38,38,41,41,42,42,43,43,44,44,45,45,46,46,47,47,48,48,49,49,52,52,53,53,54,54,55,55,56,56],"right_children":[2,4,6,8,10,12,14,16,18,20,22,24,26,28,30,32,34,36,38,40,-1,42,44,46,48,50,52,54,56,58,-1,60,62,64,66,68,70,72,74,-1,-1,76,78,80,82,84,86,88,90,92,-1,-1,94,96,98,100,102,-1,-1,-1,-1,-1,-1,-1,-1,-1,-1,-1,-1,-1,-1,-1,-1,-1,-1,-1,-1,-1,-1,-1,-1,-1,-1,-1,-1,-1,-1,-1,-1,-1,-1,-1,-1,-1,-1,-1,-1,-1,-1,-1,-1,-1,-1],"split_conditions":[3.1213846E0,4.109589E-2,5.39726E-1,1.392875E0,1.0678421E-1,2.2215666E1,6.3163E2,8.2796854E-1,2.1917809E-2,1.88025E2,1.75E2,7.945205E-2,1.8075E2,5E0,1.630137E0,5.82E1,1.1728333E0,1.7538683E0,8.7675E1,8.5E1,-1.3061843E-2,3.0958903E-1,1E0,1.4315E2,5.1855E2,3.45E-1,8E0,1.99575E2,6.6646996E0,2.5E1,2.9961077E-2,6.5448385E-1,7.435616E-1,2.65E2,2.1917809E-2,2.5E-2,8E-2,1.8160001E0,1.9412415E0,7.2934166E-2,1.5381104E-2,2.0196059E0,2.845E1,5.635833E-1,3.57325E2,1.74E2,3.688909E0,5.2698703E0,4E0,2.1369863E-1,-1.2716673E-2,8.707174E-2,3.3815E1,8E-2,5.428E1,8.082192E-1,1.78E2,3.8017843E-2,7.923035E-2,2.8767515E-2,1.2532808E-2,5.7720184E-2,2.7650842E-2,5.050484E-3,-3.167177E-3,1.8924655E-2,5.357737E-3,2.8400213E-2,4.8120204E-2,5.449877E-2,8.868778E-2,1.0265915E-2,2.501366E-2,2.6874006E-2,5.5728864E-2,3.9052912E-3,1.2931667E-2,-3.5422917E-3,1.8737853E-3,-1.2455012E-2,-6.5592914E-3,-3.0628012E-3,1.1497426E-2,4.012759E-2,-1.0673176E-3,2.6935047E-2,7.768924E-2,1.3129981E-2,2.415502E-2,2.7293786E-2,1.0890814E-1,7.142483E-2,3.7851717E-2,4.812826E-2,-9.179759E-3,2.548672E-2,-3.2449327E-3,1.907502E-2,7.2059564E-2,6.1686817E-3,-1.1773356E-3,6.8466053E-3,1.4531639E-2],"split_indices":[4,2,2,4,4,4,3,4,2,3,1,2,3,1,2,3,4,4,3,9,0,2,8,3,3,3,1,3,4,1,0,4,4,1,2,3,3,4,4,0,0,4,3,4,3,1,4,4,9,2,0,0,4,3,4,2,3,0,0,0,0,0,0,0,0,0,0,0,0,0,0,0,0,0,0,0,0,0,0,0,0,0,0,0,0,0,0,0,0,0,0,0,0,0,0,0,0,0,0,0,0,0,0],"split_type":[0,0,0,0,0,0,0,0,0,0,0,0,0,0,0,0,0,0,0,0,0,0,0,0,0,0,0,0,0,0,0,0,0,0,0,0,0,0,0,0,0,0,0,0,0,0,0,0,0,0,0,0,0,0,0,0,0,0,0,0,0,0,0,0,0,0,0,0,0,0,0,0,0,0,0,0,0,0,0,0,0,0,0,0,0,0,0,0,0,0,0,0,0,0,0,0,0,0,0,0,0,0,0],"sum_hessian":[1.1394E4,1.0232E4,1.162E3,1.114E3,9.118E3,5.39E2,6.23E2,8.91E2,2.23E2,4.8E1,9.07E3,4.71E2,6.8E1,6.07E2,1.6E1,1.32E2,7.59E2,1.11E2,1.12E2,3.1E1,1.7E1,1.794E3,7.276E3,3.8E1,4.33E2,4.7E1,2.1E1,2.4E1,5.83E2,8E0,8E0,1.07E2,2.5E1,5.69E2,1.9E2,7.2E1,3.9E1,7.5E1,3.7E1,3E1,1E0,5.87E2,1.207E3,3.573E3,3.703E3,2.7E1,1.1E1,4.16E2,1.7E1,3.9E1,8E0,1.5E1,6E0,1.6E1,8E0,3.7E2,2.13E2,4E0,4E0,1.9E1,8.8E1,8E0,1.7E1,1.91E2,3.78E2,1.14E2,7.6E1,3.2E1,4E1,2.3E1,1.6E1,5.5E1,2E1,2.7E1,1E1,3.7E2,2.17E2,5.92E2,6.15E2,4.04E2,3.169E3,3.629E3,7.4E1,2.5E1,2E0,2E0,9E0,2.38E2,1.78E2,1.2E1,5E0,1.7E1,2.2E1,5E0,1E0,1.2E1,4E0,1E0,7E0,1.17E2,2.53E2,1.52E2,6.1E1],"tree_param":{"num_deleted":"0","num_feature":"11","num_nodes":"103","size_leaf_vector":"1"}},{"base_weights":[4.6699744E-4,2.1690929E-1,-4.6257026E-2,5.761923E-1,1.6236134E-1,9.6477985E-1,-5.1789314E-2,3.973987E-1,8.786406E-1,1.5162958E-1,8.993623E-1,7.131574E-2,-1.1899578E-2,-9.068773E-2,1.8245753E-2,9.4311213E-1,2.3728879E-1,7.8778304E-2,7.90462E-1,6.5794367E-1,1.3587709E-1,6.145457E-1,1.9157196E0,4.8391912E-2,-1.0197252E-1,-3.9570708E-2,8.1548385E-2,1.1510677E0,5.852315E-1,3.6363447E-1,-1.4589938E-2,9.201721E-1,6.4318615E-1,7.826325E-1,3.2847926E-1,7.960943E-2,2.0646353E-1,2.419581E-1,6.625777E-2,1.0728144E-1,2.4902089E-2,1.707199E-1,-5.745496E-2,-2.3408829E-1,-9.4040215E-2,1.3895473E-1,-9.74187E-2,6.391911E-2,3.2254288E-1,6.2685534E-2,2.6540553E-2,3.1085355E-2,1.09967375E-2,1.1703789E-2,2.620241E-2,2.6916236E-2,4.7722246E-2,3.3297032E-2,-8.950265E-3,2.7704978E-2,5.809583E-2,2.971363E-3,1.7122712E-2,1.0909521E-2,3.3484027E-4,1.3506089E-2,4.29846E-3,4.749995E-3,2.2328105E-2,2.2931088E-2,5.3060567E-3,-3.6890842E-3,8.8885715E-3,6.0235627E-2,-1.2128054E-2,-1.9688413E-3,-5.453002E-3,1.5988387E-2,4.8754397E-3,-2.9088862E-3,-5.8023958E-3,8.742979E-3,1.1633623E-3,-3.1747386E-2,1.8273735E-2],"categories":[],"categories_nodes":[],"categories_segments":[],"categories_sizes":[],"default_left":[0,0,0,0,0,0,0,0,0,0,0,0,0,0,0,0,0,0,0,0,0,0,0,0,0,0,0,0,0,0,0,0,0,0,0,0,0,0,0,0,0,0,0,0,0,0,0,0,0,0,0,0,0,0,0,0,0,0,0,0,0,0,0,0,0,0,0,0,0,0,0,0,0,0,0,0,0,0,0,0,0,0,0,0,0],"id":17,"left_children":[1,3,5,7,9,11,13,15,17,19,21,-1,-1,23,25,27,29,-1,31,33,35,37,39,41,43,45,47,49,51,53,-1,55,57,59,61,63,65,67,-1,-1,-1,69,71,73,75,77,79,81,83,-1,-1,-1,-1,-1,-1,-1,-1,-1,-1,-1,-1,-1,-1,-1,-1,-1,-1,-1,-1,-1,-1,-1,-1,-1,-1,-1,-1,-1,-1,-1,-1,-1,-1,-1,-1],"loss_changes":[1.1511683E2,3.951432E1,5.241484E1,1.4034996E1,1.3752373E1,2.8650627E1,2.5369904E1,1.4542437E1,4.7770615E0,1.3724545E1,6.0595894E0,0E0,0E0,9.401432E0,1.2176168E1,2.1544456E0,8.930035E0,0E0,1.1083374E0,1.8791084E0,6.6600475E0,5.2394195E0,5.610714E-1,5.836425E0,5.7817116E0,1.7972778E1,6.7260933E0,7.9881287E-1,7.645559E-2,2.1011124E0,0E0,7.5115204E-2,9.610901E-1,2.563303E0,3.980863E-2,9.466272E0,5.691267E0,4.086001E-1,0E0,0E0,0E0,3.838334E0,9.425117E-1,4.107897E0,4.286434E0,3.1612482E0,9.538193E-1,6.6751485E0,4.6715937E0,0E0,0E0,0E0,0E0,0E0,0E0,0E0,0E0,0E0,0E0,0E0,0E0,0E0,0E0,0E0,0E0,0E0,0E0,0E0,0E0,0E0,0E0,0E0,0E0,0E0,0E0,0E0,0E0,0E0,0E0,0E0,0E0,0E0,0E0,0E0,0E0],"parents":[2147483647,0,0,1,1,2,2,3,3,4,4,5,5,6,6,7,7,8,8,9,9,10,10,13,13,14,14,15,15,16,16,18,18,19,19,20,20,21,21,22,22,23,23,24,24,25,25,26,26,27,27,28,28,29,29,31,31,32,32,33,33,34,34,35,35,36,36,37,37,41,41,42,42,43,43,44,44,45,45,46,46,47,47,48,48],"right_children":[2,4,6,8,10,12,14,16,18,20,22,-1,-1,24,26,28,30,-1,32,34,36,38,40,42,44,46,48,50,52,54,-1,56,58,60,62,64,66,68,-1,-1,-1,70,72,74,76,78,80,82,84,-1,-1,-1,-1,-1,-1,-1,-1,-1,-1,-1,-1,-1,-1,-1,-1,-1,-1,-1,-1,-1,-1,-1,-1,-1,-1,-1,-1,-1,-1,-1,-1,-1,-1,-1,-1],"split_conditions":[1.29E2,2.5E1,1.0678421E-1,1.8075E2,5.67275E2,1.9145E2,1.1761739E0,1E-2,5E0,1E-2,4E0,7.131574E-2,-1.1899578E-2,4.15E-1,1.3999939E0,1.1E1,1.814E2,7.8778304E-2,1.5E1,1.8E1,8.6399994E1,6.3163E2,1.08E2,7.731765E-1,4.3168086E-1,1.25E-1,3.855E2,3.6E1,1.69075E1,2.2215666E1,-1.4589938E-2,9E0,3.3815E1,4E0,2.85E1,1.15E-1,2.714E2,7.5E1,6.625777E-2,1.0728144E-1,2.4902089E-2,1E-2,7.5E2,1.3999939E0,2.6E2,1E-2,1.08E0,2.3E1,1E0,6.2685534E-2,2.6540553E-2,3.1085355E-2,1.09967375E-2,1.1703789E-2,2.620241E-2,2.6916236E-2,4.7722246E-2,3.3297032E-2,-8.950265E-3,2.7704978E-2,5.809583E-2,2.971363E-3,1.7122712E-2,1.0909521E-2,3.3484027E-4,1.3506089E-2,4.29846E-3,4.749995E-3,2.2328105E-2,2.2931088E-2,5.3060567E-3,-3.6890842E-3,8.8885715E-3,6.0235627E-2,-1.2128054E-2,-1.9688413E-3,-5.453002E-3,1.5988387E-2,4.8754397E-3,-2.9088862E-3,-5.8023958E-3,8.742979E-3,1.1633623E-3,-3.1747386E-2,1.8273735E-2],"split_indices":[1,1,4,3,3,3,4,3,1,3,9,0,0,3,6,1,6,0,1,9,6,3,1,4,4,3,3,9,4,4,0,10,4,9,1,3,0,1,0,0,0,3,1,6,1,3,3,10,10,0,0,0,0,0,0,0,0,0,0,0,0,0,0,0,0,0,0,0,0,0,0,0,0,0,0,0,0,0,0,0,0,0,0,0,0],"split_type":[0,0,0,0,0,0,0,0,0,0,0,0,0,0,0,0,0,0,0,0,0,0,0,0,0,0,0,0,0,0,0,0,0,0,0,0,0,0,0,0,0,0,0,0,0,0,0,0,0,0,0,0,0,0,0,0,0,0,0,0,0,0,0,0,0,0,0,0,0,0,0,0,0,0,0,0,0,0,0,0,0,0,0,0,0],"sum_hessian":[1.1381E4,2.02E3,9.361E3,2.65E2,1.755E3,5E1,9.311E3,1.68E2,9.7E1,1.731E3,2.4E1,3.6E1,1.4E1,5.986E3,3.325E3,3.7E1,1.31E2,9E0,8.8E1,5.1E1,1.68E3,2E1,4E0,4.49E2,5.537E3,1.738E3,1.587E3,2.2E1,1.5E1,1.06E2,2.5E1,4.4E1,4.4E1,3.6E1,1.5E1,9.36E2,7.44E2,1.4E1,6E0,3E0,1E0,2.08E2,2.41E2,3.12E2,5.225E3,4.25E2,1.313E3,1.48E3,1.07E2,1.8E1,4E0,1.3E1,2E0,6E1,4.6E1,5E0,3.9E1,4.3E1,1E0,2.4E1,1.2E1,1E0,1.4E1,3.22E2,6.14E2,4.86E2,2.58E2,9E0,5E0,3.7E1,1.71E2,2.26E2,1.5E1,1E0,3.11E2,1.127E3,4.098E3,7.8E1,3.47E2,4.24E2,8.89E2,3.96E2,1.084E3,4E0,1.03E2],"tree_param":{"num_deleted":"0","num_feature":"11","num_nodes":"85","size_leaf_vector":"1"}},{"base_weights":[1.1693507E-3,1.7571656E-1,-4.9973622E-2,4.5473337E-1,7.477209E-2,1.5861358E-1,-7.764998E-2,1.1530745E0,4.0222162E-1,4.4767898E-2,5.878178E-1,1.0144964E-1,6.6404283E-1,8.116148E-1,-8.263657E-2,1.3049773E0,2.2267308E-2,2.863445E-1,6.7331934E-1,-1.552835E-2,6.4792745E-2,3.8872015E-1,9.980033E-1,3.54614E-1,5.2165885E-2,8.76051E-1,3.9954242E-1,1.3621651E0,-1.1849176E-2,-2.5265414E-1,-7.0956744E-2,1.0858566E0,1.6596913E0,6.278376E-1,2.4072297E-1,-3.1968462E-1,8.162293E-1,2.0550847E-2,2.4956071E-1,-1.369893E-2,4.861931E-1,6.785935E-1,6.574636E-2,3.1465745E-1,5.715211E-2,-1.999141E-2,2.1799996E-1,6.8628407E-1,1.2596284E0,8.215485E-2,5.509378E-1,7.221687E-2,4.0322423E-2,-3.3745775E-1,-2.3884842E-1,-7.909136E-2,1.2327385E-1,4.2581107E-2,7.2985046E-2,1.7474776E-2,8.698749E-2,2.3974475E-2,7.6709904E-2,6.542928E-3,1.662158E-2,-1.7080788E-2,-8.181853E-3,3.309706E-2,6.3350335E-2,3.845583E-3,-1.7238137E-3,1.1013464E-2,4.756917E-2,3.4318216E-2,1.1046974E-2,3.802281E-2,9.074732E-3,2.1884738E-2,9.368401E-3,4.6241586E-3,-3.6143393E-3,1.6347341E-2,4.8841923E-3,3.6418688E-2,-2.4932614E-2,6.507106E-2,1.3728824E-2,4.4840487E-4,8.168447E-3,2.1323003E-2,3.666177E-2,-1.2112354E-2,-1.7579092E-2,1.4973328E-3,-1.1976759E-2,-5.5807903E-3,-2.5203484E-3,2.5080224E-2,-2.838353E-4],"categories":[],"categories_nodes":[],"categories_segments":[],"categories_sizes":[],"default_left":[0,0,0,0,0,0,0,0,0,0,0,0,0,0,0,0,0,0,0,0,0,0,0,0,0,0,0,0,0,0,0,0,0,0,0,0,0,0,0,0,0,0,0,0,0,0,0,0,0,0,0,0,0,0,0,0,0,0,0,0,0,0,0,0,0,0,0,0,0,0,0,0,0,0,0,0,0,0,0,0,0,0,0,0,0,0,0,0,0,0,0,0,0,0,0,0,0,0,0],"id":18,"left_children":[1,3,5,7,9,11,13,15,17,19,21,23,25,27,29,31,-1,33,35,-1,37,39,41,43,45,47,49,51,-1,53,55,57,59,61,63,65,67,69,71,-1,73,75,-1,77,-1,79,81,83,85,87,89,-1,-1,91,93,95,97,-1,-1,-1,-1,-1,-1,-1,-1,-1,-1,-1,-1,-1,-1,-1,-1,-1,-1,-1,-1,-1,-1,-1,-1,-1,-1,-1,-1,-1,-1,-1,-1,-1,-1,-1,-1,-1,-1,-1,-1,-1,-1],"loss_changes":[1.0293552E2,7.356169E1,5.1495346E1,2.4985962E1,2.9529247E1,3.012512E1,3.498354E1,4.579113E0,2.0132065E1,1.2934806E1,8.268753E0,1.1709779E1,5.594063E0,2.572428E1,1.5532688E1,1.2290955E0,0E0,6.9375114E0,2.764959E1,0E0,1.4046812E1,4.8486547E0,2.5494728E0,4.460272E0,9.433676E0,3.357376E0,2.3092375E0,1.5948486E-1,0E0,5.0829697E-1,1.1589512E1,1.1212044E0,7.555618E-1,6.390581E0,4.0169315E0,2.965641E-2,1.0915192E1,4.307358E0,6.615492E0,0E0,3.2465067E0,6.3516426E-1,0E0,2.2202091E0,0E0,3.2417302E0,3.1008902E0,2.4080238E0,3.8368416E-1,9.9579394E-2,4.3614006E-1,0E0,0E0,6.2732697E-3,8.765602E-2,6.5576324E0,1.4394703E1,0E0,0E0,0E0,0E0,0E0,0E0,0E0,0E0,0E0,0E0,0E0,0E0,0E0,0E0,0E0,0E0,0E0,0E0,0E0,0E0,0E0,0E0,0E0,0E0,0E0,0E0,0E0,0E0,0E0,0E0,0E0,0E0,0E0,0E0,0E0,0E0,0E0,0E0,0E0,0E0,0E0,0E0],"parents":[2147483647,0,0,1,1,2,2,3,3,4,4,5,5,6,6,7,7,8,8,9,9,10,10,11,11,12,12,13,13,14,14,15,15,17,17,18,18,20,20,21,21,22,22,23,23,24,24,25,25,26,26,27,27,29,29,30,30,31,31,32,32,33,33,34,34,35,35,36,36,37,37,38,38,40,40,41,41,43,43,45,45,46,46,47,47,48,48,49,49,50,50,53,53,54,54,55,55,56,56],"right_children":[2,4,6,8,10,12,14,16,18,20,22,24,26,28,30,32,-1,34,36,-1,38,40,42,44,46,48,50,52,-1,54,56,58,60,62,64,66,68,70,72,-1,74,76,-1,78,-1,80,82,84,86,88,90,-1,-1,92,94,96,98,-1,-1,-1,-1,-1,-1,-1,-1,-1,-1,-1,-1,-1,-1,-1,-1,-1,-1,-1,-1,-1,-1,-1,-1,-1,-1,-1,-1,-1,-1,-1,-1,-1,-1,-1,-1,-1,-1,-1,-1,-1,-1],"split_conditions":[1.55E2,2.1369863E-1,4.109589E-2,2.1917809E-2,3.1007977E0,3.927475E-1,-2.2369452E0,1.19E2,1.45857E0,-7.050293E-1,1.8E-1,-1.7318605E-1,2.1917809E-2,1.9145E2,-7.050293E-1,1.5E-2,2.2267308E-2,4.109589E-2,-7.050293E-1,-1.552835E-2,1.4148001E2,-1.251001E1,3.994156E0,2.104E2,1.3880323E-1,1.1665E2,3E-2,1.5E1,-1.1849176E-2,3.6E2,3.11075E2,7.6542276E-1,3.246736E-1,3.75E-1,7.5258344E-1,3.5209045E0,2.6046138E0,8.082192E-1,1.7015E1,-1.369893E-2,8.082192E-1,1.210959E0,6.574636E-2,2.1917809E-2,5.715211E-2,2.65E2,2.1917809E-2,1.0715E2,4.25E2,5.004796E-1,2.104E2,7.221687E-2,4.0322423E-2,1.16E1,6.027397E-2,1E0,3.0958903E-1,4.2581107E-2,7.2985046E-2,1.7474776E-2,8.698749E-2,2.3974475E-2,7.6709904E-2,6.542928E-3,1.662158E-2,-1.7080788E-2,-8.181853E-3,3.309706E-2,6.3350335E-2,3.845583E-3,-1.7238137E-3,1.1013464E-2,4.756917E-2,3.4318216E-2,1.1046974E-2,3.802281E-2,9.074732E-3,2.1884738E-2,9.368401E-3,4.6241586E-3,-3.6143393E-3,1.6347341E-2,4.8841923E-3,3.6418688E-2,-2.4932614E-2,6.507106E-2,1.3728824E-2,4.4840487E-4,8.168447E-3,2.1323003E-2,3.666177E-2,-1.2112354E-2,-1.7579092E-2,1.4973328E-3,-1.1976759E-2,-5.5807903E-3,-2.5203484E-3,2.5080224E-2,-2.838353E-4],"split_indices":[1,2,2,2,5,5,5,9,5,7,7,5,2,3,7,7,0,2,7,0,6,7,5,3,5,3,3,9,0,1,3,5,5,7,5,5,5,2,7,0,2,2,0,2,0,1,2,3,1,5,3,0,0,3,2,8,2,0,0,0,0,0,0,0,0,0,0,0,0,0,0,0,0,0,0,0,0,0,0,0,0,0,0,0,0,0,0,0,0,0,0,0,0,0,0,0,0,0,0],"split_type":[0,0,0,0,0,0,0,0,0,0,0,0,0,0,0,0,0,0,0,0,0,0,0,0,0,0,0,0,0,0,0,0,0,0,0,0,0,0,0,0,0,0,0,0,0,0,0,0,0,0,0,0,0,0,0,0,0,0,0,0,0,0,0,0,0,0,0,0,0,0,0,0,0,0,0,0,0,0,0,0,0,0,0,0,0,0,0,0,0,0,0,0,0,0,0,0,0,0,0],"sum_hessian":[1.1529E4,2.612E3,8.917E3,6.93E2,1.919E3,1.044E3,7.873E3,4.7E1,6.46E2,1.814E3,1.05E2,9.39E2,1.05E2,4.3E1,7.83E3,3.8E1,9E0,4.54E2,1.92E2,9.6E1,1.718E3,7.2E1,3.3E1,1.52E2,7.87E2,5.7E1,4.8E1,2.8E1,1.5E1,5.02E2,7.328E3,2.6E1,1.2E1,5.2E1,4.02E2,2.4E1,1.68E2,1.387E3,3.31E2,9E0,6.3E1,1.8E1,1.5E1,1.46E2,6E0,5.49E2,2.38E2,4E1,1.7E1,1.6E1,3.2E1,2.3E1,5E0,6.7E1,4.35E2,7.034E3,2.94E2,1.8E1,8E0,1E0,1.1E1,4.6E1,6E0,1.84E2,2.18E2,2E1,4E0,1.27E2,4.1E1,6.85E2,7.02E2,3.19E2,1.2E1,3.5E1,2.8E1,1.5E1,3E0,7.3E1,7.3E1,1.74E2,3.75E2,1.24E2,1.14E2,3.9E1,1E0,1.6E1,1E0,9E0,7E0,2.1E1,1.1E1,1.1E1,5.6E1,1E0,4.34E2,3.295E3,3.739E3,7.4E1,2.2E2],"tree_param":{"num_deleted":"0","num_feature":"11","num_nodes":"99","size_leaf_vector":"1"}},{"base_weights":[3.3071714E-3,-1.7297802E-2,4.4762844E-1,3.1191877E-1,-3.627592E-2,6.8371916E-1,2.443698E-1,1.6762151E-1,9.550852E-1,-6.459006E-2,1.0682456E-1,5.3689796E-1,9.704783E-1,1.7198451E-1,6.5153545E-1,8.581266E-2,4.414993E-1,7.101555E-1,1.2405063E0,8.913917E-1,-6.981622E-2,3.577217E-1,3.378663E-2,6.307891E-1,-1.3671416E-2,4.262563E-1,1.1385115E0,1.5264758E-1,8.8134646E-1,4.32026E-1,9.360178E-1,2.76554E-1,7.203107E-3,7.905167E-1,3.5226983E-1,4.6637574E-1,9.465153E-1,1.0221556E0,1.5060068E0,1.280448E0,-1.1231815E-2,-1.1114224E-1,-3.0152954E-2,6.095133E-1,2.6236284E-1,1.0155973E-1,-3.517261E-2,1.1483104E0,5.254632E-1,5.214264E-1,-1.4342474E-2,1.5198593E0,9.479694E-1,8.895348E-2,2.6574612E-1,4.163832E-1,6.037576E-2,6.4083254E-1,1.8998666E-1,2.8496588E-2,5.6764245E-2,1.7424233E-2,-1.350447E-3,1.0694084E-2,-2.4200054E-3,4.9176652E-2,3.0498466E-2,9.769796E-3,2.614204E-2,1.751422E-2,2.6368532E-2,1.2576443E-2,4.809035E-2,4.117224E-2,7.328399E-2,7.712629E-2,2.0303715E-2,7.184797E-2,5.0239038E-2,-1.4669402E-3,-6.661386E-3,-3.0825858E-3,1.3979211E-3,2.2234393E-2,4.385232E-2,1.2662575E-2,7.0338406E-2,4.3288223E-3,2.5898943E-2,2.1215694E-3,-3.2725383E-3,6.8763085E-2,3.878517E-2,3.0922879E-2,1.9238094E-2,1.5102903E-2,5.1568616E-2,7.815017E-2,1.9660294E-2,5.8169026E-2,2.8137708E-2,6.8711736E-3,-1.2368251E-2,1.7663738E-2,1.974941E-3,2.457301E-2,4.7788084E-3,2.0442141E-2,4.216734E-2,1.2466845E-2,-2.942808E-4],"categories":[],"categories_nodes":[],"categories_segments":[],"categories_sizes":[],"default_left":[0,0,0,0,0,0,0,0,0,0,0,0,0,0,0,0,0,0,0,0,0,0,0,0,0,0,0,0,0,0,0,0,0,0,0,0,0,0,0,0,0,0,0,0,0,0,0,0,0,0,0,0,0,0,0,0,0,0,0,0,0,0,0,0,0,0,0,0,0,0,0,0,0,0,0,0,0,0,0,0,0,0,0,0,0,0,0,0,0,0,0,0,0,0,0,0,0,0,0,0,0,0,0,0,0,0,0,0,0,0,0],"id":19,"left_children":[1,3,5,7,9,11,13,15,17,19,21,23,25,27,29,31,33,35,37,39,41,43,45,47,-1,49,51,53,55,57,59,61,63,65,67,69,71,73,75,77,-1,79,81,83,85,87,89,91,93,95,-1,97,99,101,103,105,-1,107,109,-1,-1,-1,-1,-1,-1,-1,-1,-1,-1,-1,-1,-1,-1,-1,-1,-1,-1,-1,-1,-1,-1,-1,-1,-1,-1,-1,-1,-1,-1,-1,-1,-1,-1,-1,-1,-1,-1,-1,-1,-1,-1,-1,-1,-1,-1,-1,-1,-1,-1,-1,-1],"loss_changes":[1.047344E2,6.831972E1,2.4162575E1,5.5152973E1,4.1894066E1,9.330887E0,7.963497E0,1.0896059E1,6.739029E0,4.3183655E1,3.128703E1,1.2117424E1,6.6475983E0,3.075214E0,2.1559258E0,5.6507807E0,3.2094994E0,3.0733738E0,1.3012695E0,2.0694927E1,1.4068535E1,9.084152E0,6.191394E0,7.082287E0,0E0,1.5068967E0,2.8463287E0,1.6260109E0,4.0715027E-1,1.1417346E0,5.9309673E-1,2.411316E0,3.090206E0,1.6674519E-1,2.3328285E0,4.1861534E-2,7.690239E-2,1.4370861E0,1.7698288E-1,6.624603E-2,0E0,7.59132E0,8.022696E0,4.240093E0,2.5737362E0,4.123024E0,1.5465336E0,8.781681E-1,1.3190918E0,1.7020535E0,0E0,2.6036835E-1,2.8304482E0,2.4465938E0,1.609901E0,4.9368978E-2,0E0,2.6596022E-1,1.5259343E-1,0E0,0E0,0E0,0E0,0E0,0E0,0E0,0E0,0E0,0E0,0E0,0E0,0E0,0E0,0E0,0E0,0E0,0E0,0E0,0E0,0E0,0E0,0E0,0E0,0E0,0E0,0E0,0E0,0E0,0E0,0E0,0E0,0E0,0E0,0E0,0E0,0E0,0E0,0E0,0E0,0E0,0E0,0E0,0E0,0E0,0E0,0E0,0E0,0E0,0E0,0E0,0E0],"parents":[2147483647,0,0,1,1,2,2,3,3,4,4,5,5,6,6,7,7,8,8,9,9,10,10,11,11,12,12,13,13,14,14,15,15,16,16,17,17,18,18,19,19,20,20,21,21,22,22,23,23,25,25,26,26,27,27,28,28,29,29,30,30,31,31,32,32,33,33,34,34,35,35,36,36,37,37,38,38,39,39,41,41,42,42,43,43,44,44,45,45,46,46,47,47,48,48,49,49,51,51,52,52,53,53,54,54,55,55,57,57,58,58],"right_children":[2,4,6,8,10,12,14,16,18,20,22,24,26,28,30,32,34,36,38,40,42,44,46,48,-1,50,52,54,56,58,60,62,64,66,68,70,72,74,76,78,-1,80,82,84,86,88,90,92,94,96,-1,98,100,102,104,106,-1,108,110,-1,-1,-1,-1,-1,-1,-1,-1,-1,-1,-1,-1,-1,-1,-1,-1,-1,-1,-1,-1,-1,-1,-1,-1,-1,-1,-1,-1,-1,-1,-1,-1,-1,-1,-1,-1,-1,-1,-1,-1,-1,-1,-1,-1,-1,-1,-1,-1,-1,-1,-1,-1],"split_conditions":[6.031111E0,2.1917809E-2,5.39726E-1,1.392875E0,2.026E0,1.78E2,5.428E1,3.6399994E1,1.69625E0,1.0678421E-1,2.1369863E-1,1.7889E2,1E1,6.3163E2,1.76E3,2.714E2,8.345397E-1,2.5E-2,8E-2,1.9145E2,1E0,7.945205E-2,8.082192E-1,8E0,-1.3671416E-2,9E0,1.1E1,1.72275E2,6E0,1.1342466E0,1.05E-1,1.8368E4,9.0648276E-1,7.435616E-1,1.18E0,1.5369655E0,1.29E2,2.2616665E0,3.85E2,8.082192E-1,-1.1231815E-2,1.369863E-1,1.148898E0,1.08475E2,5.1855E2,4.6646997E2,2.2286E2,2.1369863E-1,2.1369863E-1,5.67275E2,-1.4342474E-2,1.631E3,2.1369863E-1,5.25E0,2.2286E2,3E0,6.037576E-2,1.6185E2,4.83E2,2.8496588E-2,5.6764245E-2,1.7424233E-2,-1.350447E-3,1.0694084E-2,-2.4200054E-3,4.9176652E-2,3.0498466E-2,9.769796E-3,2.614204E-2,1.751422E-2,2.6368532E-2,1.2576443E-2,4.809035E-2,4.117224E-2,7.328399E-2,7.712629E-2,2.0303715E-2,7.184797E-2,5.0239038E-2,-1.4669402E-3,-6.661386E-3,-3.0825858E-3,1.3979211E-3,2.2234393E-2,4.385232E-2,1.2662575E-2,7.0338406E-2,4.3288223E-3,2.5898943E-2,2.1215694E-3,-3.2725383E-3,6.8763085E-2,3.878517E-2,3.0922879E-2,1.9238094E-2,1.5102903E-2,5.1568616E-2,7.815017E-2,1.9660294E-2,5.8169026E-2,2.8137708E-2,6.8711736E-3,-1.2368251E-2,1.7663738E-2,1.974941E-3,2.457301E-2,4.7788084E-3,2.0442141E-2,4.216734E-2,1.2466845E-2,-2.942808E-4],"split_indices":[4,2,2,4,4,3,4,6,4,4,2,6,10,3,10,0,4,3,3,3,8,2,2,1,0,10,1,3,10,2,3,10,4,4,4,4,1,4,1,2,0,2,4,3,3,6,0,2,2,3,0,10,2,3,0,10,0,3,10,0,0,0,0,0,0,0,0,0,0,0,0,0,0,0,0,0,0,0,0,0,0,0,0,0,0,0,0,0,0,0,0,0,0,0,0,0,0,0,0,0,0,0,0,0,0,0,0,0,0,0,0],"split_type":[0,0,0,0,0,0,0,0,0,0,0,0,0,0,0,0,0,0,0,0,0,0,0,0,0,0,0,0,0,0,0,0,0,0,0,0,0,0,0,0,0,0,0,0,0,0,0,0,0,0,0,0,0,0,0,0,0,0,0,0,0,0,0,0,0,0,0,0,0,0,0,0,0,0,0,0,0,0,0,0,0,0,0,0,0,0,0,0,0,0,0,0,0,0,0,0,0,0,0,0,0,0,0,0,0,0,0,0,0,0,0],"sum_hessian":[1.1438E4,1.0932E4,5.06E2,5.95E2,1.0337E4,2.33E2,2.73E2,4.87E2,1.08E2,8.63E3,1.707E3,1.56E2,7.7E1,2.33E2,4E1,3.76E2,1.11E2,6E1,4.8E1,4.6E1,8.584E3,3.84E2,1.323E3,1.4E2,1.6E1,1.9E1,5.8E1,2.28E2,5E0,2.4E1,1.6E1,1.09E2,2.67E2,2.1E1,9E1,3.1E1,2.9E1,2.9E1,1.9E1,3.4E1,1.2E1,4.203E3,4.381E3,1.04E2,2.8E2,6.67E2,6.56E2,2.2E1,1.18E2,1.7E1,2E0,1.7E1,4.1E1,1.47E2,8.1E1,3E0,2E0,1.2E1,1.2E1,7E0,9E0,8.8E1,2.1E1,5.6E1,2.11E2,8E0,1.3E1,4.8E1,4.2E1,1.3E1,1.8E1,1E0,2.8E1,2.2E1,7E0,1.8E1,1E0,1.9E1,1.5E1,8.94E2,3.309E3,2.841E3,1.54E3,6.6E1,3.8E1,2.79E2,1E0,6.45E2,2.2E1,1.84E2,4.72E2,1.2E1,1E1,6.9E1,4.9E1,1.3E1,4E0,1.6E1,1E0,2.5E1,1.6E1,1.29E2,1.8E1,5.8E1,2.3E1,2E0,1E0,7E0,5E0,9E0,3E0],"tree_param":{"num_deleted":"0","num_feature":"11","num_nodes":"111","size_leaf_vector":"1"}},{"base_weights":[2.8264782E-4,-3.1975437E-2,2.2462788E-1,7.143096E-1,-3.572957E-2,-3.0270875E-1,2.8096956E-1,5.791325E-2,-1.0780976E-2,-7.505643E-2,3.50733E-2,-1.5368248E-2,1.0828028E-2,2.3314165E-1,7.705301E-1,-2.2112177E-1,-6.3917816E-2,1.1354216E-1,-2.6028065E-2,-9.225901E-3,1.0038003E-2,2.137174E-1,1.1622664E0,6.1305237E-1,1.029645E0,-1.0594971E-2,-1.2049608E-2,5.30188E-2,-8.079433E-2,4.0352765E-2,2.6579478E-1,-9.573799E-2,1.8146658E-2,1.24894865E-1,3.540914E-1,1.2491046E0,-2.0875357E-2,1.0591291E0,4.5075756E-1,6.750016E-1,1.1490022E0,5.1671863E-3,-1.884439E-3,-5.6451433E-3,-2.8652337E-3,1.886786E-2,3.4108115E-4,-1.682214E-2,1.6569529E-2,-2.220441E-3,-5.505571E-3,5.2660974E-3,-1.8551426E-4,1.8065423E-2,3.1636748E-3,2.939102E-2,8.199827E-3,3.7726257E-2,8.600264E-2,2.7685566E-2,5.7849657E-2,1.5440981E-2,3.666238E-2,3.8910054E-2,3.580159E-3,4.3553617E-2,6.551486E-2],"categories":[],"categories_nodes":[],"categories_segments":[],"categories_sizes":[],"default_left":[0,0,0,0,0,0,0,0,0,0,0,0,0,0,0,0,0,0,0,0,0,0,0,0,0,0,0,0,0,0,0,0,0,0,0,0,0,0,0,0,0,0,0,0,0,0,0,0,0,0,0,0,0,0,0,0,0,0,0,0,0,0,0,0,0,0,0],"id":20,"left_children":[1,3,5,7,9,11,13,-1,-1,15,17,-1,19,21,23,25,27,29,31,-1,-1,33,35,